svm_type c_svc
kernel_type linear
nr_class 2
total_sv 8749
rho 0.78844449224763058
label 0 1
probA -1.3128789471557032
probB -4.4357311061388849
nr_sv 8660 89
SV
1 1:-0.02567 2:0.001918 3:0.067038 4:0.043978 5:0.53138 
1 1:-0.085614 2:0.000661 3:0.072722 4:1 5:0.360875 
1 1:0 2:0 3:0.095147 4:0.113613 5:0.194642 
1 1:-0.117464 2:0.001143 3:0.093534 4:0.021339 5:0.478147 
1 1:-0.112204 2:0.000267 3:0.009798 4:1 5:1 
1 1:-0.169928 2:0.00159 3:0.054716 4:0.1028 5:0.817368 
1 1:-0.192601 2:0.067623 3:0.025063 4:0.027828 5:1 
1 1:0.17147 2:0.01325 3:0.10924 4:0.478829 5:0.090634 
1 1:0.202055 2:0.022435 3:0.090357 4:0.548023 5:0.215028 
1 1:0.14843 2:0.018934 3:0.094385 4:0.229068 5:0.10207 
1 1:0.17615 2:0.008144 3:0.096852 4:0.324047 5:0.09947 
1 1:0.194862 2:0.255865 3:0.1102 4:0.240493 5:0.248242 
1 1:-0.072578 2:0.003419 3:0.090687 4:0.138429 5:0.212087 
1 1:0.240958 2:0.014179 3:0.095071 4:0.410813 5:0.204368 
1 1:0.373637 2:0.080332 3:0.07688 4:0.734809 5:0.454185 
1 1:0.166061 2:0.043909 3:0.041846 4:1 5:0.735845 
1 1:0.423493 2:0.101321 3:0.094345 4:0.591393 5:0.297799 
1 1:-0.007513 2:0.003963 3:0.098551 4:0.056615 5:0.200841 
1 1:0.281519 2:0.022407 3:0.086918 4:0.4333 5:0.221285 
1 1:0.444691 2:0.026201 3:0.080961 4:0.852829 5:0.251974 
1 1:-0.10113 2:0.000337 3:0.129639 4:0.823507 5:0.517111 
1 1:-0.026091 2:0.000172 3:0.087785 4:0.887456 5:0.111614 
1 1:0.098101 2:0.002315 3:0.044723 4:1 5:1 
1 1:-0.171005 2:0.283526 3:0.025063 4:1 5:1 
1 1:0.004599 2:0.004975 3:0.103357 4:0.256147 5:0.095793 
1 1:0.106183 2:0.014477 3:0.10391 4:0.241196 5:0.186983 
1 1:0.041709 2:0.017071 3:0.074533 4:0.08525 5:0.258055 
1 1:0.228424 2:0.091489 3:0.030792 4:0.687828 5:1 
1 1:0.057095 2:0.005652 3:0.096573 4:0.292416 5:0.290926 
1 1:0.189392 2:0.013697 3:0.066787 4:0.285412 5:0.287985 
1 1:0.116244 2:0.006227 3:0.072286 4:0.483448 5:0.282213 
1 1:0.148429 2:0.018077 3:0.09599 4:0.026221 5:0.240148 
1 1:0.444063 2:0.266767 3:0.132749 4:0.088877 5:0.074584 
1 1:0.339511 2:0.104642 3:0.116489 4:0.095881 5:0.166791 
1 1:0.412371 2:0.024663 3:0.126275 4:0.112119 5:0.339917 
1 1:0.218064 2:0.012961 3:0.045049 4:0.038412 5:0.665631 
1 1:0.146355 2:0.026334 3:0.016166 4:0.077849 5:0.955133 
1 1:0.434177 2:0.051453 3:0.109582 4:0.120586 5:0.5104 
1 1:0.363826 2:0.013581 3:0.124853 4:0.036539 5:0.079301 
1 1:0.475853 2:0.040788 3:0.109296 4:0.080601 5:0.177768 
1 1:0.450811 2:0.052632 3:0.118693 4:0.106028 5:0.236709 
1 1:0.325222 2:0.015651 3:0.061574 4:0.084309 5:0.701074 
1 1:0.231431 2:0.011115 3:0.058554 4:0.056419 5:0.605985 
1 1:-0.259632 2:0.001015 3:0.053956 4:0.031023 5:0.660217 
1 1:0.101892 2:0.000855 3:0.044284 4:0.932363 5:0.592617 
1 1:-0.190824 2:0.001648 3:0.011159 4:1 5:1 
1 1:0.12846 2:0.007701 3:0.01852 4:0.331405 5:1 
1 1:0.413514 2:0.034222 3:0.145594 4:0.224315 5:0.133449 
1 1:0.142897 2:0.018763 3:0.109156 4:0.130634 5:0.088257 
1 1:0.437848 2:0.03426 3:0.043239 4:1 5:0.572338 
1 1:0.130786 2:0.007356 3:0.077714 4:0.183488 5:0.727481 
1 1:0.389489 2:0.200079 3:0.03795 4:0.072725 5:0.780199 
1 1:0.304415 2:0.018967 3:0.065829 4:0.42624 5:0.375929 
1 1:0.229538 2:0.055313 3:0.105073 4:0.197001 5:0.091687 
1 1:0.302172 2:0.019135 3:0.095588 4:0.182863 5:0.286191 
1 1:0.524233 2:0.521327 3:0.048295 4:0.733386 5:0.720608 
1 1:0.133486 2:0.003153 3:0.076821 4:0.568841 5:0.240014 
1 1:0.217043 2:0.053479 3:0.130229 4:0.286103 5:0.268126 
1 1:0.180778 2:0.014778 3:0.062302 4:0.073832 5:0.475244 
1 1:0.143191 2:0.025808 3:0.113295 4:0.203468 5:0.221216 
1 1:0.054819 2:0.003917 3:0.09599 4:0.290884 5:0.11144 
1 1:0.137995 2:0.029833 3:0.089944 4:0.270731 5:0.110079 
1 1:-0.126986 2:0.618305 3:0.023052 4:1 5:0.842855 
1 1:0.202138 2:0.005761 3:0.106517 4:0.274328 5:0.402969 
1 1:0.127588 2:0.063396 3:0.058591 4:0.171781 5:0.164423 
1 1:0.02613 2:0.003666 3:0.104658 4:0.034124 5:0.286514 
1 1:-0.046644 2:0.026303 3:0.067958 4:0.214991 5:0.141761 
1 1:0.042482 2:0.009478 3:0.094429 4:0.130655 5:0.289703 
1 1:-0.061822 2:0.005952 3:0.089124 4:0.105645 5:0.111092 
1 1:0.265122 2:0.102469 3:0.029693 4:0.612325 5:0.654343 
1 1:0.099226 2:0.261324 3:0.095512 4:0.275343 5:0.365585 
1 1:0.290712 2:0.032348 3:0.056812 4:0.457187 5:0.494535 
1 1:0.090816 2:0.007943 3:0.043168 4:0.2482 5:1 
1 1:0.248686 2:0.01509 3:0.08789 4:0.251199 5:0.12171 
1 1:0.239943 2:0.020266 3:0.096129 4:0.33437 5:0.212215 
1 1:0.242444 2:0.066205 3:0.10924 4:0.208296 5:0.229427 
1 1:0.226182 2:0.023171 3:0.103357 4:0.003101 5:0.242486 
1 1:0.398138 2:0.027323 3:0.132749 4:0.207622 5:0.080581 
1 1:0.16655 2:0.018552 3:0.089944 4:0.057011 5:0.256292 
1 1:0.341968 2:0.029968 3:0.080428 4:0.282917 5:0.241575 
1 1:0.394408 2:0.026808 3:0.129679 4:0.076613 5:0.07429 
1 1:0.149376 2:0.005376 3:0.106107 4:0.033224 5:0.282602 
1 1:0.311012 2:0.141824 3:0.064276 4:0.249304 5:0.510247 
1 1:0.390874 2:0.024325 3:0.09665 4:0.291802 5:0.339334 
1 1:0.255303 2:0.074481 3:0.11532 4:0.127838 5:0.259477 
1 1:0.3797 2:0.011961 3:0.124948 4:0.246233 5:0.43442 
1 1:0.286566 2:0.006389 3:0.065169 4:0.41309 5:0.85824 
1 1:0.228154 2:0.266953 3:0.049143 4:0.117386 5:0.391379 
1 1:0.249419 2:0.013826 3:0.062355 4:0.287822 5:0.311593 
1 1:0.292857 2:0.013527 3:0.133502 4:0.144036 5:0.23065 
1 1:0.533346 2:0.104915 3:0.034468 4:0.743841 5:0.815124 
1 1:0.361375 2:0.012393 3:0.079875 4:0.132407 5:0.540445 
1 1:0.314746 2:0.027408 3:0.029795 4:0.086051 5:0.664311 
1 1:0.219477 2:0.007919 3:0.12208 4:0.178513 5:0.087624 
1 1:0.361135 2:0.018955 3:0.068207 4:0.25373 5:0.281989 
1 1:0.844297 2:0.157825 3:0.031728 4:1 5:0.642968 
1 1:-0.067849 2:0.000135 3:0.067038 4:0.53138 5:1 
1 1:-0.059765 2:0.001261 3:0.053956 4:0.223046 5:0.206819 
1 1:0.002105 2:0.001042 3:0.035623 4:1 5:0.736707 
1 1:-0.214758 2:0.001158 3:0.064611 4:0.149011 5:0.172713 
1 1:-0.251428 2:0.001444 3:0.039271 4:0.134838 5:0.471584 
1 1:0.329238 2:0.07654 3:0.090357 4:0.272625 5:0.277373 
1 1:0.391988 2:0.017203 3:0.116489 4:0.256144 5:0.091829 
1 1:0.301375 2:0.013325 3:0.145594 4:0.207322 5:0.260655 
1 1:0.357916 2:0.1116 3:0.023052 4:0.240816 5:1 
1 1:0.438261 2:0.021633 3:0.080428 4:0.323538 5:0.123103 
1 1:0.45271 2:0.020787 3:0.123461 4:0.25292 5:0.347666 
1 1:0.320455 2:0.042745 3:0.061238 4:0.254953 5:0.157317 
1 1:0.270658 2:0.035476 3:0.088578 4:0.148843 5:0.308838 
1 1:0.260049 2:0.013915 3:0.123561 4:0.235867 5:0.452655 
1 1:0.169367 2:0.056803 3:0.107395 4:0.058151 5:0.179092 
1 1:0.182205 2:0.09131 3:0.082103 4:0.122549 5:0.120592 
1 1:0.39538 2:0.481542 3:0.019429 4:1 5:1 
1 1:0.376459 2:0.166624 3:0.081632 4:0.344267 5:0.427746 
1 1:0.484852 2:0.063845 3:0.045982 4:0.603635 5:0.611018 
1 1:0.171515 2:0.016194 3:0.058563 4:0.195505 5:0.737113 
1 1:0.101972 2:0.008258 3:0.097186 4:0.02856 5:0.203661 
1 1:0.246147 2:0.006358 3:0.107668 4:0.219125 5:0.099353 
1 1:0.294436 2:0.009227 3:0.11975 4:0.156455 5:0.160615 
1 1:0.332852 2:0.065224 3:0.07969 4:0.431022 5:0.255991 
1 1:0.419199 2:0.182788 3:0.049849 4:0.972896 5:0.761302 
1 1:0.273649 2:0.040155 3:0.106517 4:0.083734 5:0.216414 
1 1:0.157883 2:0.010463 3:0.123461 4:0.320575 5:0.157373 
1 1:0.366405 2:0.090073 3:0.104344 4:0.165613 5:0.092327 
1 1:0.3668 2:0.028189 3:0.080087 4:0.654283 5:0.309003 
1 1:0.30314 2:0.014982 3:0.126382 4:0.136734 5:0.447337 
1 1:0.157912 2:0.016888 3:0.070864 4:0.047198 5:0.417819 
1 1:0.168585 2:0.005799 3:0.093865 4:0.362264 5:0.263645 
1 1:0.363711 2:0.03471 3:0.104702 4:0.239583 5:0.092011 
1 1:0.339727 2:0.039544 3:0.108229 4:0.195723 5:0.252764 
1 1:0.462985 2:0.036564 3:0.042923 4:1 5:0.810794 
1 1:0.530989 2:0.074188 3:0.136087 4:0.229388 5:0.142771 
1 1:0.463099 2:0.079932 3:0.088367 4:0.599288 5:0.208653 
1 1:0.383394 2:0.02835 3:0.138053 4:0.32707 5:0.252931 
1 1:0.193196 2:0.005771 3:0.127453 4:0.297413 5:0.08393 
1 1:0.23969 2:0.022911 3:0.100432 4:0.055504 5:0.29481 
1 1:-0.01193 2:0.026798 3:0.094385 4:0.161043 5:0.265538 
1 1:-0.008934 2:0.001817 3:0.109156 4:0.17063 5:0.347665 
1 1:0.042587 2:0.016095 3:0.058591 4:0.058462 5:0.393434 
1 1:0.27759 2:0.0086 3:0.129679 4:0.123816 5:0.07635 
1 1:0.408735 2:0.37268 3:0.051693 4:0.294044 5:0.375861 
1 1:0.115662 2:0.006279 3:0.104344 4:0.184655 5:0.411362 
1 1:-0.17543 2:0.001602 3:0.081397 4:0.015781 5:0.363755 
1 1:0.37475 2:0.050548 3:0.036966 4:0.220074 5:0.740046 
1 1:0.194308 2:0.012899 3:0.071092 4:0.168638 5:0.273301 
1 1:0.447034 2:0.195117 3:0.041288 4:0.42 5:0.845716 
1 1:0.32052 2:0.021381 3:0.095973 4:0.178453 5:0.292745 
1 1:0.160742 2:0.013798 3:0.10173 4:0.069446 5:0.424335 
1 1:-0.109853 2:0.020699 3:0.090095 4:0.023762 5:0.328636 
1 1:0.369534 2:0.020608 3:0.080087 4:0.455906 5:0.535956 
1 1:0.188066 2:0.003471 3:0.056535 4:0.222452 5:1 
1 1:0.250832 2:0.021591 3:0.074931 4:0.032485 5:0.395144 
1 1:0.320613 2:0.010948 3:0.024747 4:1 5:1 
1 1:0.506853 2:0.068024 3:0.147349 4:0.123897 5:0.065381 
1 1:0.296145 2:0.036154 3:0.135019 4:0.114178 5:0.202611 
1 1:0.300637 2:0.033237 3:0.050497 4:0.618619 5:0.689191 
1 1:0.503268 2:0.310544 3:0.046807 4:0.823392 5:0.393914 
1 1:0.0062 2:0.01233 3:0.08944 4:0.045359 5:0.331042 
1 1:0.241617 2:0.012858 3:0.045049 4:1 5:0.237454 
1 1:0.055068 2:0.008241 3:0.106107 4:0.370258 5:0.093311 
1 1:0.102107 2:0.015148 3:0.119181 4:0.312061 5:0.163024 
1 1:0.022774 2:0.005694 3:0.029986 4:0.139752 5:0.514921 
1 1:-0.069473 2:0.004454 3:0.103654 4:0.404288 5:0.271052 
1 1:-0.137838 2:0.005826 3:0.06159 4:0.280669 5:0.700895 
1 1:0.207591 2:0.007446 3:0.038949 4:0.914537 5:0.274644 
1 1:-0.130131 2:0.002566 3:0.035483 4:0.310021 5:1 
1 1:0.330809 2:0.020687 3:0.135592 4:0.382462 5:0.150452 
1 1:0.286286 2:0.039439 3:0.077714 4:0.673307 5:0.488327 
1 1:0.13193 2:0.014666 3:0.056535 4:1 5:0.437728 
1 1:-0.096081 2:0.005025 3:0.085972 4:0.041975 5:0.344397 
1 1:-0.022598 2:0.0095 3:0.068569 4:0.535049 5:0.360907 
1 1:0.151462 2:0.006524 3:0.105851 4:0.437509 5:0.32878 
1 1:0.22033 2:0.006824 3:0.097606 4:0.585384 5:0.188902 
1 1:-0.113733 2:0.01032 3:0.080507 4:0.074707 5:0.367775 
1 1:0.27092 2:0.077123 3:0.03795 4:1 5:1 
1 1:0.071258 2:0.010423 3:0.070864 4:0.553996 5:0.60571 
1 1:-0.035832 2:0.033377 3:0.081397 4:0.166129 5:0.118356 
1 1:0.258089 2:0.011343 3:0.074931 4:0.547216 5:0.330267 
1 1:-0.070974 2:0.000843 3:0.085972 4:0.157288 5:0.657605 
1 1:-0.051345 2:0.01897 3:0.075134 4:0.261255 5:0.128221 
1 1:0.102252 2:0.230329 3:0.060114 4:0.27574 5:0.455075 
1 1:0.186387 2:0.023987 3:0.084779 4:0.396179 5:0.410498 
1 1:-0.012205 2:0.025779 3:0.095021 4:0.37184 5:0.367473 
1 1:-0.061924 2:0.012756 3:0.029608 4:0.147325 5:1 
1 1:-0.01566 2:0.00065 3:0.072722 4:1 5:0.921841 
1 1:-0.07004 2:0.000863 3:0.044284 4:0.554787 5:0.25199 
1 1:0.071879 2:0.002913 3:0.035623 4:0.082761 5:1 
1 1:-0.048542 2:0.001955 3:0.054785 4:0.358758 5:0.203689 
1 1:-0.166178 2:0.002005 3:0.026243 4:0.411912 5:0.705689 
1 1:0.433627 2:0.526439 3:0.065829 4:0.347934 5:0.576488 
1 1:0.412364 2:0.034057 3:0.093865 4:0.252426 5:0.457284 
1 1:0.064239 2:0.005627 3:0.068569 4:0.119023 5:0.824502 
1 1:0.124865 2:0.012828 3:0.055631 4:0.364393 5:0.625582 
1 1:0.319428 2:0.011136 3:0.029276 4:0.854299 5:0.6298 
1 1:0.126804 2:0.017598 3:0.113939 4:0.023106 5:0.259862 
1 1:0.050337 2:0.018888 3:0.096852 4:0.227818 5:0.258774 
1 1:0.144395 2:0.006079 3:0.105073 4:0.257315 5:0.361177 
1 1:0.111114 2:0.009587 3:0.067958 4:0.073167 5:0.339208 
1 1:0.18804 2:0.063733 3:0.061238 4:0.360306 5:0.317275 
1 1:0.28963 2:0.012202 3:0.104702 4:0.26713 5:0.409954 
1 1:0.323462 2:0.227628 3:0.009634 4:1 5:1 
1 1:0.000973 2:0.003293 3:0.075134 4:0.024817 5:0.394073 
1 1:0.260179 2:0.008169 3:0.139915 4:0.171026 5:0.248735 
1 1:0.353755 2:0.109868 3:0.080609 4:0.215894 5:0.241032 
1 1:0.813223 2:0.302434 3:0.035736 4:0.704395 5:0.977104 
1 1:0.268358 2:0.025477 3:0.105151 4:0.236435 5:0.267194 
1 1:0.109893 2:0.013497 3:0.111033 4:0.092363 5:0.388783 
1 1:0.113736 2:0.008653 3:0.081697 4:0.038039 5:0.362417 
1 1:0.02013 2:0.015865 3:0.1102 4:0.277738 5:0.227428 
1 1:0.098521 2:0.002273 3:0.095588 4:0.392354 5:0.397016 
1 1:0.080331 2:0.0203 3:0.088578 4:0.345536 5:0.219347 
1 1:0.374949 2:0.045156 3:0.108229 4:0.358477 5:0.396597 
1 1:0.363728 2:0.348025 3:0.036966 4:0.361513 5:0.260614 
1 1:0.253214 2:0.007667 3:0.135019 4:0.300119 5:0.183286 
1 1:-0.041963 2:0.007334 3:0.060114 4:0.043027 5:0.492538 
1 1:0.21098 2:0.160083 3:0.027356 4:0.709113 5:0.35216 
1 1:0.199254 2:0.022201 3:0.107924 4:0.223681 5:0.180027 
1 1:-0.161384 2:0.015151 3:0.058418 4:0.073793 5:0.506837 
1 1:0.173479 2:0.01966 3:0.064276 4:0.434869 5:0.154038 
1 1:0.244203 2:0.012068 3:0.058642 4:0.292344 5:0.510263 
1 1:0.364177 2:0.019841 3:0.068556 4:0.521878 5:0.791758 
1 1:0.354572 2:0.033902 3:0.076227 4:0.410691 5:0.733735 
1 1:0.135874 2:0.017454 3:0.060266 4:0.111313 5:0.319143 
1 1:0.109899 2:0.023162 3:0.065308 4:0.165493 5:0.151605 
1 1:0.236126 2:0.029815 3:0.098607 4:0.302364 5:0.284927 
1 1:0.281224 2:0.010223 3:0.137571 4:0.089399 5:0.313786 
1 1:0.236264 2:0.079426 3:0.053784 4:0.055435 5:0.368013 
1 1:-0.07729 2:0.002306 3:0.072692 4:0.041016 5:0.411639 
1 1:0.239684 2:0.025944 3:0.07131 4:0.28222 5:0.269717 
1 1:0.36887 2:0.045051 3:0.074044 4:0.498298 5:0.275511 
1 1:0.31027 2:0.016371 3:0.016166 4:1 5:0.661712 
1 1:0.269394 2:0.030612 3:0.12613 4:0.111774 5:0.078498 
1 1:0.08209 2:0.012991 3:0.029986 4:0.068956 5:1 
1 1:-0.033408 2:0.002522 3:0.096489 4:0.163645 5:0.57966 
1 1:-0.036585 2:0.007974 3:0.062487 4:0.099271 5:0.69083 
1 1:0.260823 2:0.04319 3:0.01544 4:0.82784 5:0.692796 
1 1:-0.048671 2:0.009411 3:0.043725 4:0.090279 5:0.811494 
1 1:0.356031 2:0.137995 3:0.09665 4:0.438763 5:0.102441 
1 1:0.608063 2:0.082636 3:0.032797 4:0.862007 5:1 
1 1:0.353126 2:0.009767 3:0.034029 4:0.764332 5:0.879343 
1 1:0.395877 2:0.021756 3:0.094539 4:0.502388 5:0.591616 
1 1:0.216193 2:0.048667 3:0.089132 4:0.114184 5:0.215787 
1 1:0.26795 2:0.014284 3:0.096775 4:0.169436 5:0.102309 
1 1:0.398445 2:0.059583 3:0.131093 4:0.345048 5:0.214319 
1 1:0.175617 2:0.005431 3:0.085775 4:0.052735 5:0.230756 
1 1:0.107807 2:0.003063 3:0.04021 4:0.112494 5:0.74417 
1 1:0.288667 2:0.016791 3:0.096125 4:0.317632 5:0.200088 
1 1:0.278824 2:0.016898 3:0.106167 4:0.527248 5:0.19215 
1 1:0.164978 2:0.010579 3:0.11532 4:0.251489 5:0.085856 
1 1:0.248365 2:0.011157 3:0.058642 4:0.329703 5:0.559268 
1 1:0.107415 2:0.008473 3:0.034029 4:1 5:0.963793 
1 1:0.306916 2:0.090227 3:0.082321 4:0.450946 5:0.659373 
1 1:0.147765 2:0.032238 3:0.092023 4:0.352976 5:0.60779 
1 1:0.345356 2:0.013787 3:0.14911 4:0.207465 5:0.188423 
1 1:0.093063 2:0.005176 3:0.029923 4:0.103383 5:1 
1 1:0.321786 2:0.022183 3:0.131526 4:0.291063 5:0.155103 
1 1:0.37143 2:0.037705 3:0.124948 4:0.370244 5:0.07924 
1 1:0.272141 2:0.009588 3:0.068556 4:0.449863 5:0.478388 
1 1:0.225206 2:0.008791 3:0.05428 4:1 5:0.60421 
1 1:0.285271 2:0.017987 3:0.082321 4:0.344672 5:0.363491 
1 1:0.299405 2:0.014185 3:0.094352 4:0.117674 5:0.203849 
1 1:0.488034 2:0.028084 3:0.156476 4:0.315356 5:0.179553 
1 1:0.322092 2:0.020795 3:0.102264 4:0.048253 5:0.193548 
1 1:0.034503 2:0.002421 3:0.067389 4:0.073225 5:0.444033 
1 1:0.43116 2:0.096404 3:0.120321 4:0.507519 5:0.169547 
1 1:0.212828 2:0.004699 3:0.109582 4:0.68193 5:0.097618 
1 1:0.269241 2:0.013917 3:0.121182 4:0.114726 5:0.190225 
1 1:0.398337 2:0.014573 3:0.065169 4:1 5:0.151927 
1 1:0.346415 2:0.035778 3:0.123561 4:0.499293 5:0.157245 
1 1:0.225067 2:0.015396 3:0.067495 4:0.141612 5:0.44427 
1 1:0.120441 2:0.007503 3:0.096489 4:0.072043 5:0.160024 
1 1:0.377072 2:0.01043 3:0.094539 4:0.808822 5:0.346912 
1 1:0.234194 2:0.006101 3:0.092023 4:0.434352 5:0.325168 
1 1:0.306992 2:0.012992 3:0.143586 4:0.580948 5:0.378031 
1 1:0.074702 2:0.006607 3:0.105668 4:0.148016 5:0.182019 
1 1:0.37868 2:0.061223 3:0.055931 4:0.450535 5:0.177022 
1 1:0.504218 2:0.072539 3:0.10445 4:0.465865 5:0.186016 
1 1:0.389021 2:0.041143 3:0.085298 4:0.814949 5:0.329383 
1 1:0.205111 2:0.018153 3:0.086962 4:0.329733 5:0.496396 
1 1:0.182186 2:0.018208 3:0.086881 4:0.08001 5:0.227817 
1 1:0.212064 2:0.004898 3:0.100806 4:0.586138 5:0.106115 
1 1:0.279677 2:0.013038 3:0.124186 4:0.377833 5:0.154877 
1 1:0.096389 2:0.001982 3:0.088275 4:0.206709 5:0.401954 
1 1:0.701776 2:0.123717 3:0.096348 4:0.892835 5:0.211733 
1 1:0.021158 2:0.028947 3:0.090687 4:0.221762 5:0.276364 
1 1:-0.066594 2:0.037417 3:0.074533 4:0.0038 5:0.336264 
1 1:0.340266 2:0.043031 3:0.049143 4:0.432289 5:0.201471 
1 1:0.070344 2:0.063713 3:0.107395 4:0.187262 5:0.180915 
1 1:0.052274 2:0.007245 3:0.060266 4:0.235002 5:0.544195 
1 1:0.419086 2:0.026795 3:0.089132 4:0.279656 5:0.367954 
1 1:0.161897 2:0.031191 3:0.118756 4:0.109718 5:0.251969 
1 1:0.084202 2:0.005247 3:0.094352 4:0.288201 5:0.575293 
1 1:0.209708 2:0.059554 3:0.105668 4:0.225171 5:0.529305 
1 1:0.060381 2:0.018251 3:0.058213 4:0.14111 5:0.170083 
1 1:0.162134 2:0.023433 3:0.094489 4:0.167874 5:0.205626 
1 1:-0.017958 2:0.007034 3:0.100196 4:0.16962 5:0.30732 
1 1:0.148646 2:0.00795 3:0.069459 4:0.32624 5:0.404494 
1 1:0.050197 2:0.01578 3:0.019793 4:0.114486 5:1 
1 1:0.257774 2:0.274855 3:0.019234 4:0.79526 5:1 
1 1:0.545432 2:0.177647 3:0.159879 4:0.25654 5:0.066907 
1 1:0.514782 2:0.075464 3:0.048295 4:0.859143 5:0.785792 
1 1:0.543835 2:0.219582 3:0.042923 4:1 5:1 
1 1:0.328657 2:0.015287 3:0.050497 4:0.887798 5:0.490075 
1 1:0.268913 2:0.019063 3:0.105851 4:0.139673 5:0.534102 
1 1:0.035931 2:0.005409 3:0.084779 4:0.033753 5:0.349241 
1 1:0.313688 2:0.012152 3:0.055631 4:0.522951 5:0.444843 
1 1:0.292535 2:0.023464 3:0.045501 4:0.995762 5:0.405225 
1 1:0.205183 2:0.005942 3:0.110589 4:0.043126 5:0.267734 
1 1:-0.071228 2:0.004205 3:0.089124 4:0.0237 5:0.258649 
1 1:0.46227 2:0.10407 3:0.009901 4:1 5:1 
1 1:0.040857 2:0.01492 3:0.082103 4:0.11416 5:0.236646 
1 1:0.071309 2:0.006633 3:0.065308 4:0.10107 5:0.502187 
1 1:0.100325 2:0.003897 3:0.096775 4:0.120043 5:0.338896 
1 1:0.353514 2:0.016966 3:0.129003 4:0.098239 5:0.420765 
1 1:0.335648 2:0.030192 3:0.055931 4:0.198264 5:1 
1 1:0.1047 2:0.022086 3:0.058213 4:0.04082 5:0.330403 
1 1:0.117084 2:0.035673 3:0.063223 4:0.116931 5:0.307316 
1 1:0.013574 2:0.005074 3:0.074401 4:0.058553 5:0.580203 
1 1:0.111989 2:0.016938 3:0.038542 4:0.027402 5:0.513549 
1 1:0.163528 2:0.006499 3:0.114235 4:0.078582 5:0.093641 
1 1:0.191961 2:0.008576 3:0.077397 4:0.092105 5:0.248506 
1 1:0.354612 2:0.237959 3:0.041581 4:0.314307 5:0.490609 
1 1:0.137456 2:0.031657 3:0.095071 4:0.204368 5:0.263622 
1 1:0.150714 2:0.035207 3:0.104248 4:0.002625 5:0.240413 
1 1:0.265859 2:0.009004 3:0.109296 4:0.215324 5:0.097872 
1 1:0.516544 2:0.653122 3:0.029693 4:0.147458 5:0.776341 
1 1:0.285557 2:0.014148 3:0.062355 4:0.329147 5:0.158783 
1 1:0.319355 2:0.019686 3:0.136087 4:0.180978 5:0.315409 
1 1:0.181506 2:0.032363 3:0.071092 4:0.119328 5:0.135512 
1 1:0.404399 2:0.062335 3:0.080609 4:0.152767 5:0.119513 
1 1:0.280757 2:0.088244 3:0.107924 4:0.096353 5:0.253476 
1 1:0.223959 2:0.010851 3:0.126609 4:0.10807 5:0.259037 
1 1:0.319549 2:0.009859 3:0.10445 4:0.220076 5:0.535479 
1 1:0.13338 2:0.174554 3:0.094489 4:0.052131 5:0.203554 
1 1:0.213315 2:0.023322 3:0.063223 4:0.125523 5:0.156604 
1 1:0.277498 2:0.048855 3:0.099065 4:0.22375 5:0.352471 
1 1:0.438393 2:0.07428 3:0.028096 4:0.779201 5:1 
1 1:0.368655 2:0.059717 3:0.048179 4:0.187436 5:0.895981 
1 1:0.12032 2:0.015844 3:0.081997 4:0.026699 5:0.241389 
1 1:0.363746 2:0.067398 3:0.099599 4:0.186833 5:0.107402 
1 1:0.382435 2:0.034643 3:0.108818 4:0.135798 5:0.17675 
1 1:0.404074 2:0.025847 3:0.066449 4:0.407707 5:0.307004 
1 1:0.351027 2:0.054957 3:0.076821 4:0.543529 5:0.494006 
1 1:0.566879 2:0.045492 3:0.088367 4:0.488804 5:0.485739 
1 1:0.117283 2:0.004684 3:0.046807 4:0.963822 5:0.528704 
1 1:0.335397 2:0.03363 3:0.097606 4:0.152429 5:0.579222 
1 1:0.143335 2:0.009689 3:0.114164 4:0.025223 5:0.259349 
1 1:0.535239 2:0.207079 3:0.045501 4:0.812185 5:0.764866 
1 1:0.389407 2:0.285842 3:0.07688 4:0.733394 5:0.325997 
1 1:0.124901 2:0.014949 3:0.10184 4:0.007798 5:0.246098 
1 1:0.303545 2:0.012094 3:0.130229 4:0.530524 5:0.29141 
1 1:0.031074 2:0.004079 3:0.095512 4:0.133032 5:0.24135 
1 1:0.081222 2:0.01138 3:0.081632 4:0.690702 5:0.238012 
1 1:0.241024 2:0.006387 3:0.138053 4:0.517714 5:0.310919 
1 1:0.341516 2:0.154303 3:0.041288 4:0.596256 5:0.233333 
1 1:0.26499 2:0.010412 3:0.095021 4:0.050145 5:0.311598 
1 1:0.523723 2:0.139385 3:0.035736 4:1 5:0.269583 
1 1:0.473567 2:0.053536 3:0.034918 4:0.864232 5:0.783451 
1 1:0.338053 2:0.028043 3:0.099065 4:0.448909 5:0.196127 
1 1:0.379932 2:0.024428 3:0.111878 4:0.425892 5:0.275231 
1 1:0.383929 2:0.029154 3:0.117996 4:0.538412 5:0.238107 
1 1:0.205145 2:0.006874 3:0.131545 4:0.59766 5:0.155081 
1 1:-0.007359 2:0.006119 3:0.090229 4:0.088012 5:0.328146 
1 1:0.390033 2:0.15938 3:0.041846 4:1 5:0.598926 
1 1:0.034012 2:0.058308 3:0.030792 4:0.019141 5:0.81393 
1 1:0.252745 2:0.072769 3:0.130984 4:0.319474 5:0.148334 
1 1:0.142759 2:0.007788 3:0.100196 4:0.105881 5:0.19196 
1 1:0.293053 2:0.017961 3:0.111878 4:0.426714 5:0.312106 
1 1:0.186056 2:0.020117 3:0.127235 4:0.370579 5:0.220818 
1 1:0.318991 2:0.021782 3:0.088483 4:0.359693 5:0.217371 
1 1:0.388492 2:0.022911 3:0.102055 4:0.571736 5:0.199892 
1 1:0.370088 2:0.025335 3:0.094345 4:0.319853 5:0.265651 
1 1:0.166013 2:0.011326 3:0.096573 4:0.004401 5:0.25952 
1 1:0.485252 2:0.03672 3:0.118693 4:0.307951 5:0.090124 
1 1:0.162854 2:0.018895 3:0.056812 4:0.119697 5:0.405753 
1 1:0.52286 2:0.0528 3:0.034468 4:0.924811 5:0.28725 
1 1:0.660427 2:0.195365 3:0.045982 4:0.656267 5:0.422544 
1 1:0.248908 2:0.042189 3:0.095973 4:0.137284 5:0.10038 
1 1:0.185934 2:0.004861 3:0.103654 4:0.045104 5:0.28929 
1 1:0.444206 2:0.026871 3:0.105151 4:0.181889 5:0.091619 
1 1:0.1355 2:0.005354 3:0.098607 4:0.215512 5:0.3326 
1 1:0.298409 2:0.013564 3:0.131093 4:0.285306 5:0.250178 
1 1:0.394227 2:0.024297 3:0.085298 4:0.418551 5:0.655708 
1 1:0.303791 2:0.03075 3:0.069459 4:0.110142 5:0.276906 
1 1:0.267241 2:0.030524 3:0.036639 4:0.336407 5:0.270231 
1 1:0.367145 2:0.100548 3:0.117996 4:0.29176 5:0.295923 
1 1:0.495575 2:0.10895 3:0.127235 4:0.200426 5:0.242011 
1 1:0.191759 2:0.008281 3:0.058582 4:0.23942 5:0.736883 
1 1:0.115347 2:0.007818 3:0.054959 4:0.061867 5:0.360141 
1 1:0.387106 2:0.050771 3:0.108189 4:0.267137 5:0.098874 
1 1:0.152569 2:0.007471 3:0.085678 4:0.267876 5:0.224487 
1 1:0.718046 2:0.565588 3:0.042077 4:1 5:0.484828 
1 1:-0.101891 2:0.001006 3:0.009798 4:1 5:1 
1 1:-0.134961 2:0.000753 3:0.087785 4:0.204626 5:0.509465 
1 1:0.040283 2:0.002375 3:0.052092 4:0.971793 5:0.858535 
1 1:0.300731 2:0.011282 3:0.061574 4:1 5:0.173728 
1 1:0.105477 2:0.027559 3:0.043168 4:0.265374 5:0.534006 
1 1:0.194978 2:0.012921 3:0.079875 4:0.67228 5:0.123956 
1 1:-0.055339 2:0.036224 3:0.058563 4:0.868021 5:0.331767 
1 1:0.395139 2:0.053689 3:0.125114 4:0.515033 5:0.343072 
1 1:0.134199 2:0.015986 3:0.10173 4:0.218177 5:0.094699 
1 1:-0.113409 2:0.002991 3:0.06159 4:0.127874 5:0.48687 
1 1:0.131164 2:0.007 3:0.111033 4:0.290174 5:0.086765 
1 1:0.008136 2:0.005713 3:0.062487 4:0.091664 5:0.2471 
1 1:0.139516 2:0.00798 3:0.086962 4:0.691585 5:0.643158 
1 1:0.194802 2:0.019242 3:0.074401 4:0.279072 5:0.133075 
1 1:0.070176 2:0.041876 3:0.048179 4:0.832195 5:0.403272 
1 1:0.343863 2:0.059511 3:0.058582 4:0.977747 5:0.4796 
1 1:0.117739 2:0.010493 3:0.108176 4:0.052949 5:0.182971 
1 1:0.26668 2:0.010937 3:0.051587 4:0.94377 5:0.207361 
1 1:0.243068 2:0.014701 3:0.099651 4:0.711299 5:0.204716 
1 1:-0.024017 2:0.010698 3:0.098551 4:0.148455 5:0.254312 
1 1:0.286566 2:0.063005 3:0.029795 4:0.5187 5:0.332304 
1 1:0.030615 2:0.008435 3:0.097186 4:0.15054 5:0.199919 
1 1:0.147595 2:0.018996 3:0.053784 4:0.191565 5:0.609788 
1 1:0.290744 2:0.015173 3:0.085775 4:0.211407 5:0.382356 
1 1:0.203239 2:0.005087 3:0.102264 4:0.193439 5:0.530784 
1 1:0.253104 2:0.014497 3:0.086881 4:0.199227 5:0.643758 
1 1:0.070492 2:0.10838 3:0.019793 4:0.187394 5:0.971734 
1 1:0.112602 2:0.009594 3:0.038542 4:0.155047 5:0.256889 
1 1:0.121992 2:0.017363 3:0.081997 4:0.140731 5:0.236953 
1 1:0.065312 2:0.009749 3:0.054959 4:0.299948 5:0.511212 
1 1:0.059931 2:0.006709 3:0.108176 4:0.062861 5:0.399052 
1 1:0.119704 2:0.020373 3:0.039026 4:0.285123 5:0.492836 
1 1:0.275044 2:0.072138 3:0.0204 4:1 5:1 
1 1:0.537431 2:0.032682 3:0.010697 4:1 5:1 
1 1:0.145065 2:0.019562 3:0.08789 4:0.022644 5:0.262281 
1 1:0.285345 2:0.017652 3:0.12208 4:0.076416 5:0.081102 
1 1:0.214484 2:0.117161 3:0.107668 4:0.082024 5:0.180456 
1 1:0.455806 2:0.079555 3:0.127453 4:0.087834 5:0.336777 
1 1:0.272373 2:0.032087 3:0.01544 4:0.064446 5:1 
1 1:0.31706 2:0.010771 3:0.100806 4:0.103647 5:0.554831 
1 1:0.205485 2:0.113442 3:0.114235 4:0.031577 5:0.086672 
1 1:0.335241 2:0.043165 3:0.099599 4:0.069936 5:0.195076 
1 1:0.391154 2:0.052471 3:0.108189 4:0.091976 5:0.259691 
1 1:0.224177 2:0.022395 3:0.051587 4:0.079569 5:0.836796 
1 1:0.057159 2:0.001574 3:0.058912 4:0.044339 5:0.602303 
1 1:-0.295705 2:0.002374 3:0.011159 4:1 5:1 
1 1:-0.063136 2:0.001769 3:0.064611 4:0.020726 5:0.551341 
1 1:0.132664 2:0.00288 3:0.054785 4:0.60292 5:0.479026 
1 1:-0.18949 2:0.001075 3:0.029524 4:0.166306 5:0.627276 
1 1:0.113467 2:0.010433 3:0.072692 4:0.314291 5:0.451171 
1 1:0.218694 2:0.012056 3:0.04021 4:1 5:0.815638 
1 1:3.5e-05 2:0.004841 3:0.029923 4:0.70243 5:1 
1 1:0.070433 2:0.013757 3:0.067389 4:0.650927 5:0.805476 
1 1:0.082939 2:0.006699 3:0.120749 4:0.317866 5:0.463196 
1 1:0.364492 2:0.061854 3:0.086918 4:0.359925 5:0.28835 
1 1:0.138131 2:0.033231 3:0.066787 4:0.006597 5:0.375264 
1 1:0.4405 2:0.034544 3:0.068207 4:0.484502 5:0.14516 
1 1:0.170537 2:0.025564 3:0.11975 4:0.261244 5:0.16225 
1 1:0.193195 2:0.019938 3:0.07131 4:0.308944 5:0.459914 
1 1:0.38233 2:0.034303 3:0.096125 4:0.403373 5:0.341185 
1 1:0.415853 2:0.015585 3:0.09008 4:0.469573 5:0.602574 
1 1:0.498131 2:0.048902 3:0.124186 4:0.298035 5:0.450376 
1 1:0.16607 2:0.016618 3:0.077397 4:0.165096 5:0.127924 
1 1:0.187299 2:0.006787 3:0.108818 4:0.226751 5:0.178549 
1 1:0.272819 2:0.032126 3:0.088483 4:0.298783 5:0.348003 
1 1:0.360007 2:0.018621 3:0.085678 4:0.411419 5:0.327924 
1 1:0.282455 2:0.015564 3:0.039026 4:0.090322 5:0.507172 
1 1:0.539332 2:0.295664 3:0.043621 4:1 5:0.467664 
1 1:-0.20167 2:0.000804 3:0.054716 4:0.105783 5:0.17907 
1 1:-0.296564 2:0.000568 3:0.044723 4:0.237269 5:1 
1 1:0.044603 2:0.003413 3:0.052092 4:1 5:0.188089 
1 1:0.294767 2:0.007531 3:0.058554 4:1 5:0.182689 
1 1:-0.039402 2:0.021653 3:0.035483 4:0.211073 5:0.845093 
1 1:0.012882 2:0.008703 3:0.043725 4:0.12457 5:0.353127 
1 1:0.193487 2:0.00585 3:0.088275 4:0.647882 5:0.633593 
1 1:0.067103 2:0.007406 3:0.058912 4:0.785894 5:0.181579 
1 1:-0.015376 2:0.002454 3:0.095147 4:0.275818 5:0.704567 
1 1:-0.197568 2:0.001723 3:0.01852 4:0.478735 5:0.602554 
1 1:-0.182601 2:0.00065 3:0.039271 4:0.027092 5:0.90709 
1 1:0.077551 2:0.005613 3:0.026243 4:1 5:1 
1 1:-0.436527 2:0.001786 3:0.029524 4:0.240239 5:0.377968 
1 1:0.757081 2:0.221784 3:0.080961 4:0.370991 5:0.309565 
1 1:0.324197 2:0.03437 3:0.072286 4:0.005852 5:0.346715 
1 1:0.701059 2:0.361807 3:0.096129 4:0.070412 5:0.2398 
1 1:0.548652 2:0.052439 3:0.07969 4:0.376906 5:0.24381 
1 1:0.408458 2:0.017139 3:0.129548 4:0.146947 5:0.074365 
1 1:0.249168 2:0.011134 3:0.074044 4:0.285666 5:0.442931 
1 1:0.426169 2:0.036361 3:0.106167 4:0.35065 5:0.308915 
1 1:0.274778 2:0.009364 3:0.120321 4:0.337529 5:0.451128 
1 1:0.224221 2:0.007605 3:0.096348 4:0.368822 5:0.580505 
1 1:0.431674 2:0.049251 3:0.028042 4:0.271545 5:0.685882 
1 1:0.433491 2:0.031081 3:0.041581 4:0.295041 5:0.238112 
1 1:0.706879 2:0.623765 3:0.066449 4:0.356518 5:0.292396 
1 1:0.509047 2:0.066016 3:0.131545 4:0.260491 5:0.265444 
1 1:0.403869 2:0.044099 3:0.102055 4:0.248712 5:0.301721 
1 1:0.805089 2:0.29151 3:0.042077 4:0.804317 5:0.667724 
1 1:0.393991 2:0.014019 3:0.099651 4:0.140092 5:0.433191 
1 1:0.395852 2:0.081286 3:0.0204 4:0.165897 5:0.970244 
1 1:0.357536 2:0.041152 3:0.043621 4:0.523693 5:0.440923 
1 1:0.225573 2:0.010209 3:0.062302 4:1 5:0.609132 
1 1:0.072793 2:0.005459 3:0.100432 4:0.641724 5:0.427383 
1 1:0.358515 2:0.026379 3:0.08944 4:0.75262 5:0.27669 
1 1:-0.00026 2:0.015881 3:0.080507 4:0.275745 5:0.702243 
1 1:-0.163775 2:0.010619 3:0.029608 4:0.145116 5:1 
1 1:-0.024079 2:0.022107 3:0.081697 4:0.394444 5:0.117921 
1 1:-0.065743 2:0.044948 3:0.058418 4:0.465818 5:0.468286 
1 1:-0.002742 2:0.00317 3:0.110589 4:0.498608 5:0.314695 
1 1:0.237193 2:0.021624 3:0.133636 4:0.509072 5:0.137972 
1 1:-0.085557 2:0.023047 3:0.090229 4:0.64286 5:0.386988 
1 1:-0.107061 2:0.001138 3:0.069869 4:0.017201 5:0.558918 
1 1:0.638944 2:0.059444 3:0.045592 4:0.85233 5:0.320275 
1 1:0.307582 2:0.087742 3:0.027242 4:1 5:0.302068 
1 1:0.258423 2:0.011471 3:0.050559 4:0.483342 5:0.307164 
1 1:0.103516 2:0.003636 3:0.110604 4:0.340474 5:0.042606 
1 1:0.090125 2:0.006375 3:0.111911 4:0.268482 5:0.268551 
1 1:0.194221 2:0.016129 3:0.067994 4:0.52438 5:0.257364 
1 1:0.314952 2:0.009454 3:0.049951 4:0.521313 5:0.303724 
1 1:-0.029356 2:0.001138 3:0.10436 4:0.103647 5:0.385964 
1 1:0.567081 2:0.102009 3:0.035434 4:0.960997 5:0.926848 
1 1:0.130425 2:0.005487 3:0.091472 4:0.214603 5:0.426922 
1 1:0.142717 2:0.003132 3:0.108341 4:0.351282 5:0.043496 
1 1:-0.067252 2:0.001763 3:0.095671 4:0.100498 5:0.473455 
1 1:0.040434 2:0.006479 3:0.061315 4:0.601099 5:0.763896 
1 1:0.165375 2:0.021681 3:0.035338 4:0.136039 5:0.232862 
1 1:0.095047 2:0.001283 3:0.110561 4:0.236207 5:0.173756 
1 1:-0.165392 2:0.002626 3:0.051327 4:0.028585 5:0.499379 
1 1:0.245549 2:0.004601 3:0.102658 4:0.268682 5:0.045904 
1 1:0.15796 2:0.027493 3:0.02905 4:1 5:0.227957 
1 1:-0.069135 2:0.000891 3:0.086545 4:0.149181 5:0.168046 
1 1:0.076975 2:0.001493 3:0.04327 4:0.447574 5:0.916638 
1 1:0.020758 2:0.003191 3:0.024779 4:0.45 5:0.267249 
1 1:-0.044054 2:0.001666 3:0.089909 4:0.019582 5:0.134829 
1 1:0.24271 2:0.006177 3:0.101995 4:0.238783 5:0.118851 
1 1:0.048587 2:0.001875 3:0.072536 4:0.008091 5:0.290394 
1 1:-0.034212 2:0.000767 3:0.078993 4:0.282312 5:0.094783 
1 1:0.128727 2:0.004798 3:0.10729 4:0.259818 5:0.043922 
1 1:-0.064999 2:0.003739 3:0.098132 4:0.071764 5:0.461582 
1 1:-0.010787 2:0.001356 3:0.056876 4:0.397254 5:0.743803 
1 1:-0.028823 2:0.000979 3:0.07564 4:0.159052 5:0.192275 
1 1:0.436047 2:0.023818 3:0.045417 4:0.326159 5:0.853006 
1 1:0.331322 2:0.013279 3:0.119053 4:0.182747 5:0.039582 
1 1:0.279085 2:0.009221 3:0.11885 4:0.192796 5:0.055718 
1 1:0.128393 2:0.003996 3:0.032056 4:0.317697 5:0.453701 
1 1:0.12453 2:0.014454 3:0.103576 4:0.071508 5:0.114915 
1 1:0.303585 2:0.012614 3:0.089597 4:0.170497 5:0.442681 
1 1:0.212133 2:0.004142 3:0.121403 4:0.072446 5:0.054546 
1 1:0.111126 2:0.00157 3:0.042243 4:0.087666 5:0.5174 
1 1:0.178303 2:0.0058 3:0.02682 4:0.05178 5:0.451993 
1 1:0.08954 2:0.002864 3:0.047513 4:0.009743 5:0.443339 
1 1:0.202934 2:0.008367 3:0.107498 4:0.137798 5:0.068794 
1 1:0.34671 2:0.011334 3:0.047953 4:0.366829 5:0.156137 
1 1:0.053497 2:0.000809 3:0.104028 4:0.142395 5:0.114417 
1 1:0.117267 2:0.001722 3:0.076097 4:0.145994 5:0.420476 
1 1:0.13804 2:0.01157 3:0.024973 4:0.639492 5:0.875188 
1 1:0.013024 2:0.001467 3:0.036063 4:0.263138 5:0.403282 
1 1:0.118072 2:0.002593 3:0.051327 4:0.085752 5:0.48276 
1 1:-0.109535 2:0.001706 3:0.077921 4:0.166132 5:0.396663 
1 1:-0.040474 2:0.000902 3:0.080529 4:0.302213 5:0.058518 
1 1:0.14719 2:0.004368 3:0.025632 4:1 5:0.258356 
1 1:0.021807 2:0.007325 3:0.106436 4:0.182436 5:0.282364 
1 1:0.131509 2:0.001368 3:0.094165 4:0.181466 5:0.421205 
1 1:0.064145 2:0.003007 3:0.027019 4:0.364131 5:0.245091 
1 1:-0.133768 2:0.001199 3:0.078616 4:0.125144 5:0.362821 
1 1:0.241568 2:0.006926 3:0.085008 4:0.289338 5:0.055435 
1 1:-0.36408 2:0.008385 3:0.05576 4:0.111437 5:0.812339 
1 1:0.12015 2:0.180668 3:0.042304 4:0.471243 5:1 
1 1:0.059797 2:0.0226 3:0.102199 4:0.233066 5:0.458304 
1 1:0.006907 2:0.001595 3:0.09037 4:0.229195 5:0.081043 
1 1:-0.207751 2:0.001046 3:0.055876 4:0.069504 5:0.566173 
1 1:0.044473 2:0.004935 3:0.077921 4:0.026444 5:0.328941 
1 1:-0.018175 2:0.001522 3:0.086644 4:0.242577 5:0.329206 
1 1:0.03456 2:0.001315 3:0.103548 4:0.394013 5:0.063951 
1 1:0.059682 2:0.001824 3:0.104217 4:0.150266 5:0.063541 
1 1:-0.399833 2:0.01327 3:0.049254 4:0.016734 5:0.610182 
1 1:-0.017579 2:0.001566 3:0.05886 4:0.266059 5:0.484598 
1 1:0.198373 2:0.010124 3:0.128011 4:0.273645 5:0.256557 
1 1:0.022999 2:0.006686 3:0.07883 4:0.12547 5:0.574603 
1 1:0.130033 2:0.002243 3:0.084076 4:0.377429 5:0.503169 
1 1:0.109255 2:0.001863 3:0.064844 4:0.565633 5:0.252633 
1 1:0.143013 2:0.011244 3:0.081071 4:0.29992 5:0.202069 
1 1:0.171828 2:0.004365 3:0.110928 4:0.341793 5:0.42224 
1 1:-0.039639 2:0.004352 3:0.040195 4:0.20506 5:0.18221 
1 1:0.235594 2:0.006306 3:0.035005 4:0.941848 5:0.209224 
1 1:0.067052 2:0.0103 3:0.036145 4:0.171027 5:0.875242 
1 1:0.130632 2:0.01275 3:0.076591 4:0.645506 5:0.190649 
1 1:0.246461 2:0.05044 3:0.062184 4:0.557363 5:0.132331 
1 1:0.138121 2:0.01816 3:0.091594 4:0.339445 5:0.169553 
1 1:0.243921 2:0.012741 3:0.074115 4:0.646437 5:0.063582 
1 1:0.066486 2:0.006506 3:0.102678 4:0.441793 5:0.170427 
1 1:0.104044 2:0.007205 3:0.06206 4:0.533833 5:0.244458 
1 1:0.145098 2:0.004016 3:0.043047 4:0.319688 5:0.935698 
1 1:-0.053422 2:0.010025 3:0.10462 4:0.414106 5:0.313919 
1 1:0.142098 2:0.009025 3:0.039051 4:0.639541 5:1 
1 1:0.0049 2:0.001537 3:0.069762 4:0.694082 5:0.06755 
1 1:-0.147095 2:0.001468 3:0.091838 4:0.133197 5:0.493212 
1 1:0.183828 2:0.003339 3:0.061339 4:0.565041 5:0.801166 
1 1:0.183245 2:0.042272 3:0.046892 4:1 5:0.998866 
1 1:-0.039556 2:0.011364 3:0.06373 4:0.095972 5:0.12912 
1 1:0.111555 2:0.005063 3:0.045417 4:1 5:0.422987 
1 1:0.301497 2:0.00752 3:0.123114 4:0.389624 5:0.038277 
1 1:-0.016628 2:0.001313 3:0.077326 4:0.290369 5:0.188082 
1 1:-0.063181 2:0.00229 3:0.069193 4:0.361375 5:0.106878 
1 1:-0.148061 2:0.00039 3:0.079616 4:0.102551 5:0.274521 
1 1:0.113433 2:0.008756 3:0.057437 4:0.053307 5:0.211052 
1 1:0.135301 2:0.001981 3:0.04557 4:0.929438 5:0.266013 
1 1:0.139364 2:0.002587 3:0.075465 4:0.013524 5:0.279124 
1 1:0.021052 2:0.00177 3:0.070191 4:0.465287 5:0.105357 
1 1:0.103339 2:0.001544 3:0.093308 4:0.41564 5:0.080241 
1 1:0.209124 2:0.005861 3:0.123067 4:0.393918 5:0.038292 
1 1:-0.038991 2:0.00122 3:0.097239 4:0.099709 5:0.613265 
1 1:0.062537 2:0.000442 3:0.057774 4:0.609452 5:0.378307 
1 1:-0.010325 2:0.002701 3:0.078581 4:0.266252 5:0.185079 
1 1:0.784167 2:0.107412 3:0.045592 4:0.301541 5:0.25035 
1 1:0.149299 2:0.005796 3:0.076591 4:0.009972 5:0.509866 
1 1:1 2:0.24961 3:0.021284 4:0.813406 5:0.38663 
1 1:0.8957 2:0.081182 3:0.01553 4:1 5:1 
1 1:0.797702 2:0.069045 3:0.027328 4:0.829128 5:0.640334 
1 1:0.764059 2:0.093992 3:0.055788 4:0.387903 5:0.588699 
1 1:0.174011 2:0.003997 3:0.076538 4:0.16299 5:0.51022 
1 1:0.340947 2:0.009636 3:0.136507 4:0.177179 5:0.034522 
1 1:0.140496 2:0.002492 3:0.124311 4:0.139264 5:0.395319 
1 1:0.391296 2:0.031917 3:0.093527 4:0.250433 5:0.500799 
1 1:0.787071 2:0.096569 3:0.014602 4:0.209223 5:0.563542 
1 1:-0.112275 2:0.003502 3:0.062184 4:0.010586 5:0.627996 
1 1:0.665382 2:0.035486 3:0.021284 4:1 5:0.686072 
1 1:0.5184 2:0.053668 3:0.032375 4:0.413415 5:0.479686 
1 1:0.645689 2:0.032408 3:0.047806 4:0.408491 5:0.366048 
1 1:0.619626 2:0.042389 3:0.022783 4:0.626007 5:0.665907 
1 1:0.039064 2:0.001374 3:0.103113 4:0.057454 5:0.390632 
1 1:0.541077 2:0.153962 3:0.049534 4:0.376522 5:0.663025 
1 1:0.162056 2:0.018063 3:0.072373 4:0.148556 5:0.539579 
1 1:0.239874 2:0.003753 3:0.116901 4:0.178311 5:0.040311 
1 1:0.252619 2:0.027689 3:0.116561 4:0.128005 5:0.421604 
1 1:0.239095 2:0.010605 3:0.072774 4:0.277386 5:0.643615 
1 1:0.603434 2:0.316606 3:0.008229 4:0.319973 5:1 
1 1:-0.096954 2:0.002576 3:0.086644 4:0.343294 5:0.356731 
1 1:0.087783 2:0.002166 3:0.114481 4:0.51444 5:0.057844 
1 1:0.055882 2:0.013049 3:0.110076 4:0.405324 5:0.273027 
1 1:0.035277 2:0.003387 3:0.028524 4:0.792524 5:1 
1 1:0.182842 2:0.01227 3:0.063658 4:0.719563 5:0.664553 
1 1:0.137503 2:0.005145 3:0.052945 4:1 5:0.309413 
1 1:0.14764 2:0.010942 3:0.051778 4:0.677863 5:0.316387 
1 1:-0.035498 2:0.002198 3:0.057485 4:0.206972 5:0.127405 
1 1:0.047731 2:0.005858 3:0.057055 4:0.834128 5:0.128365 
1 1:-0.180529 2:0.002741 3:0.059571 4:0.149793 5:0.531054 
1 1:0.251505 2:0.049524 3:0.050559 4:0.170999 5:0.225755 
1 1:0.060692 2:0.00305 3:0.091594 4:0.005244 5:0.426351 
1 1:0.904365 2:0.097437 3:0.01553 4:1 5:0.940245 
1 1:0.563862 2:0.081214 3:0.032375 4:0.336275 5:0.25417 
1 1:0.482498 2:0.060034 3:0.03279 4:0.317376 5:0.462679 
1 1:0.650317 2:0.047468 3:0.049947 4:0.272467 5:0.657545 
1 1:0.009624 2:0.001853 3:0.091729 4:0.085524 5:0.425724 
1 1:0.027588 2:0.002688 3:0.104852 4:0.140479 5:0.44671 
1 1:0.542229 2:0.052074 3:0.028136 4:0.068284 5:0.292466 
1 1:0.18915 2:0.011854 3:0.110604 4:0.024218 5:0.103197 
1 1:0.308737 2:0.030106 3:0.119053 4:0.037082 5:0.161361 
1 1:0.096831 2:0.003423 3:0.080529 4:0.00308 5:0.318288 
1 1:0.273915 2:0.021924 3:0.074115 4:0.002008 5:0.526897 
1 1:0.274171 2:0.007042 3:0.120033 4:0.028101 5:0.068555 
1 1:-0.019926 2:0.001555 3:0.086046 4:0.021907 5:0.07696 
1 1:0.093291 2:0.002644 3:0.09391 4:0.003169 5:0.129084 
1 1:0.272114 2:0.003121 3:0.099969 4:0.041185 5:0.121261 
1 1:0.015192 2:0.002733 3:0.078236 4:0.001268 5:0.269239 
1 1:0.176521 2:0.00385 3:0.108856 4:0.029164 5:0.067936 
1 1:0.351931 2:0.030512 3:0.129574 4:0.029095 5:0.057783 
1 1:0.196998 2:0.010531 3:0.044911 4:0.029821 5:0.896855 
1 1:0.254046 2:0.003525 3:0.109359 4:0.022226 5:0.357091 
1 1:0.938395 2:0.261069 3:0.004712 4:1 5:1 
1 1:0.178358 2:0.00902 3:0.045296 4:0.026283 5:1 
1 1:0.068526 2:0.002487 3:0.105814 4:0.022502 5:0.302391 
1 1:0.233895 2:0.003356 3:0.122681 4:0.031134 5:0.344831 
1 1:0.145039 2:0.002413 3:0.100594 4:0.033532 5:0.488525 
1 1:0.786018 2:0.092483 3:0.049289 4:0.092589 5:0.950285 
1 1:0.19568 2:0.003485 3:0.02905 4:0.101981 5:0.852974 
1 1:0.300398 2:0.018987 3:0.11885 4:0.130497 5:0.161637 
1 1:0.031834 2:0.004753 3:0.025632 4:0.033994 5:1 
1 1:0.145022 2:0.006845 3:0.103548 4:0.084147 5:0.298494 
1 1:0.33791 2:0.067002 3:0.114481 4:0.077633 5:0.249156 
1 1:0.479261 2:0.223041 3:0.079427 4:0.206239 5:0.05933 
1 1:0.159764 2:0.001989 3:0.101057 4:0.075874 5:0.143915 
1 1:0.275811 2:0.008675 3:0.131945 4:0.099055 5:0.227775 
1 1:0.226589 2:0.018552 3:0.06997 4:0.164378 5:0.566855 
1 1:0.193128 2:0.004061 3:0.094308 4:0.011087 5:0.12854 
1 1:0.224957 2:0.003843 3:0.106144 4:0.136267 5:0.114206 
1 1:0.231568 2:0.003932 3:0.073883 4:0.004717 5:0.285101 
1 1:0.084773 2:0.003175 3:0.098313 4:0.067357 5:0.290132 
1 1:0.254196 2:0.004621 3:0.097461 4:0.135891 5:0.076822 
1 1:0.414301 2:0.01592 3:0.084139 4:0.196759 5:0.056008 
1 1:-0.053438 2:0.025839 3:0.06929 4:0.06036 5:0.653712 
1 1:0.067896 2:0.001913 3:0.051573 4:0.260184 5:0.820288 
1 1:0.341674 2:0.031352 3:0.112242 4:0.142837 5:0.417298 
1 1:0.230522 2:0.005592 3:0.114298 4:0.121972 5:0.064077 
1 1:0.252043 2:0.005701 3:0.087816 4:0.081362 5:0.165615 
1 1:0.245806 2:0.050716 3:0.079662 4:0.032813 5:0.397117 
1 1:-0.044538 2:0.001544 3:0.086545 4:0.041429 5:0.286307 
1 1:0.171869 2:0.003594 3:0.032056 4:0.585577 5:0.599292 
1 1:0.219345 2:0.003544 3:0.077326 4:0.174562 5:0.501002 
1 1:0.220006 2:0.003469 3:0.101057 4:0.206616 5:0.065528 
1 1:0.162363 2:0.016843 3:0.074949 4:0.09005 5:0.158808 
1 1:-0.026675 2:0.000572 3:0.058945 4:0.236152 5:0.672872 
1 1:0.22911 2:0.004219 3:0.102103 4:0.078495 5:0.064857 
1 1:0.051899 2:0.001807 3:0.036373 4:0.092776 5:0.60089 
1 1:0.008868 2:0.002597 3:0.03429 4:0.036904 5:0.353518 
1 1:0.097914 2:0.001368 3:0.03867 4:0.452691 5:0.313481 
1 1:0.194828 2:0.012239 3:0.044308 4:0.00952 5:0.475407 
1 1:0.146743 2:0.00263 3:0.016029 4:1 5:0.467098 
1 1:0.013005 2:0.00129 3:0.077561 4:0.174033 5:0.153459 
1 1:-0.005791 2:0.001255 3:0.105016 4:0.096401 5:0.304689 
1 1:0.015723 2:0.001726 3:0.014544 4:0.594577 5:1 
1 1:0.032806 2:0.01281 3:0.074949 4:0.109181 5:0.194048 
1 1:0.015867 2:0.001912 3:0.061359 4:0.200042 5:0.646401 
1 1:-0.178095 2:0.000485 3:0.072643 4:0.040962 5:0.300875 
1 1:0.181907 2:0.00328 3:0.113601 4:0.135879 5:0.106709 
1 1:0.054055 2:0.010257 3:0.060493 4:0.233652 5:0.12377 
1 1:0.10523 2:0.004129 3:0.011902 4:1 5:1 
1 1:0.061531 2:0.001946 3:0.092803 4:0.138276 5:0.235515 
1 1:-0.008738 2:0.000876 3:0.082785 4:0.092106 5:0.175679 
1 1:0.119485 2:0.006782 3:0.030909 4:1 5:1 
1 1:0.059495 2:0.001414 3:0.110076 4:0.286408 5:0.259127 
1 1:0.271735 2:0.010007 3:0.139384 4:0.416892 5:0.033809 
1 1:0.243938 2:0.003728 3:0.131945 4:0.463821 5:0.050188 
1 1:0.041757 2:0.001852 3:0.084454 4:0.278145 5:0.337742 
1 1:0.209531 2:0.013128 3:0.108303 4:0.485162 5:0.303243 
1 1:0.117225 2:0.018297 3:0.094669 4:0.156715 5:0.478465 
1 1:0.153557 2:0.002289 3:0.114949 4:0.41409 5:0.368028 
1 1:0.098523 2:0.00315 3:0.074447 4:0.739013 5:0.220047 
1 1:0.148273 2:0.003242 3:0.090335 4:0.403743 5:0.181346 
1 1:0.237655 2:0.012963 3:0.115449 4:0.492614 5:0.405707 
1 1:0.206455 2:0.00445 3:0.054666 4:0.226164 5:0.133975 
1 1:0.237121 2:0.005513 3:0.053234 4:0.928979 5:0.137577 
1 1:0.042947 2:0.001972 3:0.066544 4:0.139346 5:0.475407 
1 1:-0.012281 2:0.00137 3:0.04327 4:0.236723 5:0.572654 
1 1:0.068709 2:0.000827 3:0.089597 4:0.598514 5:0.214413 
1 1:0.005411 2:0.009359 3:0.094165 4:0.031993 5:0.272199 
1 1:0.265294 2:0.030131 3:0.128984 4:0.439105 5:0.036535 
1 1:0.001561 2:0.002659 3:0.06997 4:0.852514 5:0.094642 
1 1:0.085251 2:0.001451 3:0.058945 4:0.449758 5:0.246731 
1 1:0.078961 2:0.000941 3:0.061359 4:0.314229 5:0.19398 
1 1:0.040515 2:0.002615 3:0.067179 4:0.340823 5:0.098574 
1 1:0.017696 2:0.00055 3:0.085246 4:0.113089 5:0.25639 
1 1:0.151456 2:0.004252 3:0.078244 4:0.046204 5:0.154929 
1 1:0.196591 2:0.013715 3:0.08861 4:0.564381 5:0.136805 
1 1:0.09495 2:0.004126 3:0.069843 4:0.017254 5:0.301593 
1 1:0.169491 2:0.005779 3:0.045792 4:1 5:0.163504 
1 1:0.126 2:0.001193 3:0.07176 4:0.537369 5:0.165865 
1 1:0.222424 2:0.003441 3:0.09568 4:0.484893 5:0.442146 
1 1:0.304413 2:0.005271 3:0.094739 4:0.438828 5:0.2307 
1 1:0.070681 2:0.0023 3:0.054446 4:0.453722 5:0.267118 
1 1:0.0442 2:0.00489 3:0.024779 4:0.045891 5:1 
1 1:-0.118315 2:0.007662 3:0.027019 4:0.012378 5:0.948658 
1 1:0.283669 2:0.008397 3:0.086046 4:0.073073 5:0.054767 
1 1:0.11179 2:0.00497 3:0.006622 4:1 5:1 
1 1:0.176743 2:0.015854 3:0.102103 4:0.028825 5:0.142441 
1 1:0.074898 2:0.000768 3:0.067179 4:0.065716 5:0.590406 
1 1:0.152021 2:0.006039 3:0.109465 4:0.050718 5:0.110741 
1 1:0.052779 2:0.007597 3:0.077465 4:0.001727 5:0.27192 
1 1:0.137304 2:0.006753 3:0.095195 4:0.026701 5:0.299633 
1 1:0.194979 2:0.004078 3:0.090758 4:0.070016 5:0.051923 
1 1:-0.081514 2:0.006202 3:0.074719 4:0.021485 5:0.606213 
1 1:0.248598 2:0.012546 3:0.118308 4:0.052015 5:0.395901 
1 1:0.107453 2:0.002344 3:0.089304 4:0.030709 5:0.162854 
1 1:-0.121436 2:0.001596 3:0.078416 4:0.012795 5:0.403429 
1 1:0.126232 2:0.001638 3:0.108569 4:0.094722 5:0.176943 
1 1:0.057228 2:0.001605 3:0.069193 4:0.106878 5:0.559893 
1 1:0.324944 2:0.007422 3:0.115953 4:0.093673 5:0.040641 
1 1:0.075455 2:0.001275 3:0.098821 4:0.09705 5:0.122669 
1 1:0.000949 2:0.003923 3:0.089879 4:0.034712 5:0.448148 
1 1:0.020323 2:0.001454 3:0.032472 4:0.170806 5:0.985381 
1 1:0.062803 2:0.00478 3:0.074225 4:0.105859 5:0.662075 
1 1:-0.026946 2:0.000581 3:0.059633 4:0.036816 5:1 
1 1:0.035315 2:0.000961 3:0.042243 4:0.66737 5:0.454767 
1 1:-0.006473 2:0.000579 3:0.079616 4:0.254628 5:0.48659 
1 1:0.03129 2:0.00271 3:0.036373 4:0.383177 5:0.399844 
1 1:-0.016382 2:0.000694 3:0.072643 4:0.139536 5:0.16385 
1 1:-0.097167 2:0.001547 3:0.085246 4:0.245243 5:0.46527 
1 1:-0.28591 2:0.000741 3:0.062252 4:0.03053 5:0.19473 
1 1:0.118261 2:0.007047 3:0.059803 4:0.439628 5:0.202704 
1 1:0.022787 2:0.012526 3:0.078135 4:0.008108 5:0.269588 
1 1:0.054383 2:0.003755 3:0.041018 4:0.586908 5:0.182535 
1 1:-0.152065 2:0.000919 3:0.069436 4:0.29196 5:0.171416 
1 1:0.098864 2:0.007041 3:0.021856 4:1 5:1 
1 1:-0.039752 2:0.001775 3:0.05075 4:0.255903 5:0.286573 
1 1:0.506665 2:0.234785 3:0.067994 4:0.22375 5:0.167868 
1 1:0.073565 2:0.005602 3:0.102678 4:0.008232 5:0.380326 
1 1:0.522389 2:0.051964 3:0.047806 4:0.400745 5:0.172132 
1 1:0.664808 2:0.055363 3:0.017499 4:0.98209 5:0.887472 
1 1:0.62568 2:0.050523 3:0.040809 4:0.448738 5:0.371758 
1 1:0.631526 2:0.103038 3:0.064983 4:0.368517 5:0.505395 
1 1:0.184384 2:0.007961 3:0.096489 4:0.143072 5:0.40472 
1 1:0.174615 2:0.003792 3:0.120547 4:0.215015 5:0.388547 
1 1:0.574139 2:0.132462 3:0.041888 4:0.080711 5:0.19645 
1 1:-0.075363 2:0.002266 3:0.049254 4:0.406788 5:0.627536 
1 1:-0.141337 2:0.007825 3:0.030054 4:1 5:1 
1 1:0.057355 2:0.179483 3:0.082278 4:0.116886 5:0.55052 
1 1:0.05306 2:0.002611 3:0.104024 4:0.342842 5:0.157482 
1 1:0.092407 2:0.005252 3:0.092035 4:0.400564 5:0.508918 
1 1:-0.032186 2:0.000906 3:0.080053 4:0.40045 5:0.091487 
1 1:-0.033734 2:0.000882 3:0.083957 4:0.071594 5:0.376805 
1 1:0.346113 2:0.094181 3:0.049951 4:0.194935 5:0.228506 
1 1:0.086715 2:0.041452 3:0.06206 4:0.008717 5:0.629245 
1 1:0.940161 2:0.211083 3:0.017491 4:1 5:0.834843 
1 1:0.703753 2:0.06246 3:0.022783 4:0.538195 5:0.361188 
1 1:0.590112 2:0.054096 3:0.03279 4:0.335449 5:0.473623 
1 1:0.641205 2:0.03999 3:0.040809 4:0.393248 5:0.428803 
1 1:0.103255 2:0.003188 3:0.105087 4:0.046329 5:0.383292 
1 1:0.374331 2:0.017442 3:0.068967 4:0.222236 5:0.476202 
1 1:0.226386 2:0.006642 3:0.059048 4:0.149633 5:0.661348 
1 1:0.14477 2:0.003023 3:0.106981 4:0.114614 5:0.459357 
1 1:0.198659 2:0.009253 3:0.086104 4:0.192665 5:0.543977 
1 1:-0.093576 2:0.001587 3:0.089909 4:0.027616 5:0.275597 
1 1:0.127124 2:0.002735 3:0.02682 4:0.484667 5:0.716289 
1 1:0.024267 2:0.002112 3:0.057437 4:0.162739 5:0.674484 
1 1:0.090142 2:0.004519 3:0.09391 4:0.146192 5:0.05018 
1 1:0.022087 2:0.003322 3:0.094308 4:0.153318 5:0.070217 
1 1:-0.050384 2:0.001361 3:0.03429 4:0.187407 5:0.424131 
1 1:0.131125 2:0.003736 3:0.078244 4:0.123197 5:0.50691 
1 1:0.033236 2:0.002449 3:0.097499 4:0.056923 5:0.067919 
1 1:0.007122 2:0.000451 3:0.062252 4:0.037538 5:0.351097 
1 1:0.089589 2:0.004633 3:0.012122 4:1 5:1 
1 1:0.00715 2:0.0035 3:0.021064 4:0.013867 5:1 
1 1:0.03651 2:0.001133 3:0.047882 4:0.231818 5:0.156367 
1 1:0.084884 2:0.002109 3:0.114052 4:0.034575 5:0.353164 
1 1:0.116269 2:0.006555 3:0.111675 4:0.083701 5:0.106582 
1 1:0.166671 2:0.020134 3:0.095991 4:0.144543 5:0.049092 
1 1:-0.01338 2:0.001877 3:0.075725 4:0.092578 5:0.422544 
1 1:-0.02635 2:0.001789 3:0.050151 4:0.200943 5:0.435808 
1 1:-0.009001 2:0.002285 3:0.02641 4:0.226733 5:0.550677 
1 1:0.054278 2:0.0018 3:0.101995 4:0.035977 5:0.242939 
1 1:0.313237 2:0.004603 3:0.019211 4:1 5:1 
1 1:0.361025 2:0.010364 3:0.099969 4:0.202962 5:0.047139 
1 1:0.237973 2:0.046142 3:0.106144 4:0.201322 5:0.062388 
1 1:0.176657 2:0.002735 3:0.03867 4:0.245601 5:0.376096 
1 1:0.152094 2:0.002153 3:0.08861 4:0.160773 5:0.44761 
1 1:0.140422 2:0.002569 3:0.109465 4:0.074931 5:0.060495 
1 1:0.457201 2:0.118716 3:0.098821 4:0.107028 5:0.074834 
1 1:-0.024379 2:0.000916 3:0.059803 4:0.05775 5:0.365474 
1 1:0.259063 2:0.021922 3:0.012122 4:0.106836 5:1 
1 1:0.162921 2:0.004539 3:0.032414 4:0.013318 5:0.649851 
1 1:0.033897 2:0.000748 3:0.096613 4:0.142987 5:0.076545 
1 1:0.159173 2:0.003783 3:0.053964 4:0.303989 5:0.138743 
1 1:0.1263 2:0.002408 3:0.11563 4:0.050402 5:0.348346 
1 1:0.296419 2:0.006198 3:0.101579 4:0.20187 5:0.046392 
1 1:0.201402 2:0.001925 3:0.066969 4:0.15471 5:0.477789 
1 1:0.204913 2:0.002264 3:0.044143 4:0.337392 5:0.495122 
1 1:0.114581 2:0.001866 3:0.034865 4:0.253834 5:0.417146 
1 1:-0.045034 2:0.001163 3:0.072536 4:0.091526 5:0.341601 
1 1:0.021638 2:0.001759 3:0.047513 4:0.731532 5:0.404327 
1 1:0.212052 2:0.002142 3:0.075465 4:0.331196 5:0.513355 
1 1:0.194763 2:0.009075 3:0.078236 4:0.469217 5:0.060233 
1 1:-0.055959 2:0.000933 3:0.073883 4:0.523289 5:0.089629 
1 1:0.132207 2:0.001968 3:0.044308 4:0.387817 5:0.328242 
1 1:-0.097251 2:0.00111 3:0.069843 4:0.36904 5:0.567883 
1 1:-0.043354 2:0.002446 3:0.077465 4:0.191573 5:0.085485 
1 1:-0.043725 2:0.001221 3:0.078135 4:0.07997 5:0.279727 
1 1:0.047348 2:0.002073 3:0.021064 4:0.11124 5:0.575492 
1 1:0.032296 2:0.00265 3:0.032414 4:1 5:0.373984 
1 1:0.040453 2:0.00163 3:0.052887 4:0.561195 5:0.141568 
1 1:0.311287 2:0.015274 3:0.080988 4:0.458094 5:0.058187 
1 1:-0.128599 2:0.010763 3:0.086394 4:0.216974 5:0.370361 
1 1:-0.122095 2:0.000433 3:0.069416 4:0.388186 5:0.314859 
1 1:0.089087 2:0.006713 3:0.03089 4:0.518336 5:0.470813 
1 1:0.019369 2:0.001559 3:0.078616 4:0.026891 5:0.326034 
1 1:-0.235423 2:0.002028 3:0.05886 4:0.359164 5:0.525116 
1 1:-0.119591 2:0.001075 3:0.028524 4:0.755981 5:1 
1 1:0.20194 2:0.002924 3:0.098313 4:0.425767 5:0.067357 
1 1:-0.10142 2:0.00209 3:0.084454 4:0.37548 5:0.35586 
1 1:0.030108 2:0.002614 3:0.052871 4:0.615774 5:0.800147 
1 1:0.137046 2:0.002505 3:0.045411 4:0.828655 5:0.360745 
1 1:0.009496 2:0.002348 3:0.037131 4:0.227742 5:0.197245 
1 1:0.220609 2:0.010057 3:0.033825 4:1 5:0.216522 
1 1:-0.109256 2:0.003875 3:0.031635 4:0.200477 5:1 
1 1:0.14155 2:0.007421 3:0.107498 4:0.124952 5:0.178707 
1 1:0.165991 2:0.006925 3:0.070191 4:0.13761 5:0.551928 
1 1:0.225023 2:0.003244 3:0.108856 4:0.130325 5:0.043291 
1 1:0.033039 2:0.002917 3:0.007395 4:1 5:1 
1 1:0.084056 2:0.001088 3:0.096613 4:0.129657 5:0.125473 
1 1:-0.084328 2:0.003764 3:0.082513 4:0.049385 5:0.488157 
1 1:0.244791 2:0.006939 3:0.031997 4:0.226403 5:1 
1 1:0.198948 2:0.009361 3:0.069033 4:0.148665 5:0.711876 
1 1:0.378654 2:0.102451 3:0.136561 4:0.101675 5:0.342985 
1 1:-0.119647 2:0.00105 3:0.066873 4:0.04288 5:0.891741 
1 1:0.170498 2:0.021369 3:0.078993 4:0.0784 5:0.31368 
1 1:0.162426 2:0.005895 3:0.047953 4:0.676137 5:0.400615 
1 1:0.050467 2:0.001158 3:0.093308 4:0.249872 5:0.415189 
1 1:0.248822 2:0.003118 3:0.129574 4:0.264282 5:0.036369 
1 1:0.197592 2:0.038348 3:0.097461 4:0.370051 5:0.067946 
1 1:0.276491 2:0.005722 3:0.016029 4:1 5:0.907323 
1 1:-0.017271 2:0.001227 3:0.060493 4:0.192711 5:0.196759 
1 1:0.054667 2:0.000783 3:0.045792 4:0.525065 5:0.866149 
1 1:0.217397 2:0.029185 3:0.097479 4:0.142014 5:0.067933 
1 1:-0.041031 2:0.000573 3:0.041018 4:0.142104 5:0.53285 
1 1:0.064076 2:0.001984 3:0.047882 4:0.04565 5:0.25317 
1 1:0.246527 2:0.010083 3:0.053964 4:0.560311 5:0.224635 
1 1:0.008823 2:0.001791 3:0.052887 4:0.013776 5:0.398283 
1 1:-0.012429 2:6.6e-05 3:0.064448 4:0.361767 5:0.184684 
1 1:0.195377 2:0.010601 3:0.120716 4:0.144855 5:0.265061 
1 1:0.200619 2:0.004048 3:0.135668 4:0.206762 5:0.311823 
1 1:0.181164 2:0.002846 3:0.049017 4:0.512811 5:0.44589 
1 1:-0.327708 2:0.004451 3:0.043047 4:0.029548 5:0.907174 
1 1:0.097802 2:0.000817 3:0.122215 4:0.22203 5:0.316987 
1 1:0.299981 2:0.007964 3:0.119185 4:0.345069 5:0.122515 
1 1:0.028257 2:0.004506 3:0.103113 4:0.27961 5:0.079805 
1 1:0.201276 2:0.006983 3:0.044911 4:0.887415 5:0.104927 
1 1:0.19468 2:0.003946 3:0.12392 4:0.338726 5:0.053438 
1 1:-0.039968 2:0.001513 3:0.089879 4:0.23115 5:0.082279 
1 1:0.219841 2:0.011878 3:0.105087 4:0.262253 5:0.144368 
1 1:0.088835 2:0.001623 3:0.11563 4:0.304344 5:0.104837 
1 1:0.124377 2:0.01535 3:0.082513 4:0.328864 5:0.089625 
1 1:0.073663 2:0.004938 3:0.069367 4:0.2995 5:0.562963 
1 1:0.119349 2:0.00389 3:0.040279 4:1 5:0.116994 
1 1:-0.067685 2:0.001652 3:0.081564 4:0.124758 5:0.55534 
1 1:-0.030351 2:0.001657 3:0.092656 4:0.219645 5:0.345332 
1 1:0.227188 2:0.008213 3:0.056063 4:0.514269 5:0.876564 
1 1:0.179924 2:0.01266 3:0.054311 4:0.718216 5:0.862408 
1 1:0.177273 2:0.037131 3:0.114835 4:0.055063 5:0.215776 
1 1:0.011079 2:0.000782 3:0.104028 4:0.318221 5:0.184668 
1 1:0.110249 2:0.002655 3:0.077561 4:0.211006 5:0.187511 
1 1:0.043207 2:0.0009 3:0.011902 4:1 5:1 
1 1:0.012775 2:0.001487 3:0.07176 4:0.342097 5:0.552712 
1 1:0.074358 2:0.000682 3:0.069436 4:0.085708 5:0.314769 
1 1:0.09433 2:0.001234 3:0.115768 4:0.266673 5:0.104712 
1 1:0.233625 2:0.005247 3:0.064448 4:0.438624 5:0.116174 
1 1:0.146358 2:0.009153 3:0.090598 4:0.283283 5:0.241247 
1 1:0.220228 2:0.018397 3:0.08705 4:0.175188 5:0.167073 
1 1:0.501263 2:0.198127 3:0.035434 4:0.87647 5:0.322118 
1 1:0.065546 2:0.006427 3:0.10462 4:0.016492 5:0.373268 
1 1:0.436741 2:0.025772 3:0.055788 4:1 5:0.261743 
1 1:0.620421 2:0.048285 3:0.049534 4:0.78954 5:0.166127 
1 1:-0.041355 2:0.001374 3:0.108303 4:0.398278 5:0.277497 
1 1:0.358982 2:0.036609 3:0.064983 4:0.787692 5:0.269288 
1 1:-0.110853 2:0.002745 3:0.079803 4:0.014414 5:0.376599 
1 1:0.357747 2:0.055075 3:0.068967 4:0.54205 5:0.219978 
1 1:0.180591 2:0.004501 3:0.121568 4:0.231816 5:0.32123 
1 1:0.198169 2:0.008019 3:0.094193 4:0.561737 5:0.497257 
1 1:0.264668 2:0.021321 3:0.054587 4:0.126433 5:0.150748 
1 1:-0.032827 2:0.009452 3:0.091472 4:0.426635 5:0.124782 
1 1:0.096073 2:0.006437 3:0.039051 4:0.055518 5:1 
1 1:0.358995 2:0.008656 3:0.076538 4:0.915892 5:0.190782 
1 1:0.162639 2:0.012325 3:0.072373 4:0.679014 5:0.1137 
1 1:0.14898 2:0.030944 3:0.091729 4:0.480588 5:0.169303 
1 1:0.21642 2:0.005566 3:0.109359 4:0.621186 5:0.043091 
1 1:0.220609 2:0.016783 3:0.096489 4:0.666591 5:0.181358 
1 1:0.345785 2:0.010576 3:0.059048 4:0.795534 5:0.25693 
1 1:0.133483 2:0.010177 3:0.069367 4:0.281293 5:0.580664 
1 1:0.068021 2:0.002526 3:0.104739 4:0.655489 5:0.044992 
1 1:0.082163 2:0.00152 3:0.049143 4:1 5:1 
1 1:0.274572 2:0.032988 3:0.085656 4:0.776208 5:0.546818 
1 1:0.13504 2:0.007667 3:0.069229 4:0.125268 5:0.118864 
1 1:0.332316 2:0.037812 3:0.108341 4:0.024987 5:0.105352 
1 1:0.343053 2:0.019833 3:0.120736 4:0.036955 5:0.159112 
1 1:0.178677 2:0.180142 3:0.085008 4:0.002949 5:0.30152 
1 1:0.106454 2:0.003344 3:0.069762 4:0.002156 5:0.559777 
1 1:0.218127 2:0.005806 3:0.116901 4:0.029161 5:0.070392 
1 1:0.322505 2:0.012239 3:0.084139 4:0.058987 5:0.078704 
1 1:0.259898 2:0.003903 3:0.133162 4:0.024847 5:0.297851 
1 1:0.021318 2:0.000914 3:0.090758 4:0.02099 5:0.072964 
1 1:0.37225 2:0.075986 3:0.101579 4:0.040963 5:0.119338 
1 1:0.052903 2:0.001671 3:0.080988 4:0.001238 5:0.26009 
1 1:0.235637 2:0.004636 3:0.106141 4:0.030228 5:0.069673 
1 1:0.172283 2:0.012373 3:0.040279 4:0.033605 5:1 
1 1:0.3233 2:0.012504 3:0.104739 4:0.023453 5:0.372844 
1 1:0.197964 2:0.029683 3:0.047787 4:0.025178 5:0.947868 
1 1:0.04628 2:0.002556 3:0.104364 4:0.023057 5:0.306591 
1 1:0.194891 2:0.002597 3:0.127205 4:0.030346 5:0.332569 
1 1:0.199754 2:0.005259 3:0.096063 4:0.035487 5:0.511568 
1 1:0.776251 2:0.062385 3:0.047127 4:0.097867 5:0.993878 
1 1:0.172302 2:0.004952 3:0.111669 4:0.018406 5:0.130238 
1 1:0.089254 2:0.000897 3:0.098132 4:0.083478 5:0.252503 
1 1:0.00957 2:0.006615 3:0.05576 4:0.04321 5:0.459678 
1 1:-0.008008 2:0.003261 3:0.07883 4:0.30564 5:0.392092 
1 1:0.24986 2:0.013081 3:0.045296 4:1 5:0.104037 
1 1:0.105858 2:0.002209 3:0.06929 4:0.688484 5:0.09557 
1 1:0.000154 2:0.001606 3:0.094669 4:0.381754 5:0.317461 
1 1:0.043323 2:0.004505 3:0.074719 4:0.245065 5:0.088626 
1 1:-0.130235 2:0.002292 3:0.082278 4:0.011713 5:0.365269 
1 1:0.080042 2:0.005134 3:0.081564 4:0.159513 5:0.493833 
1 1:0.151255 2:0.006922 3:0.120987 4:0.33854 5:0.271452 
1 1:0.238259 2:0.021461 3:0.047787 4:0.957951 5:0.098613 
1 1:0.040811 2:0.001083 3:0.095432 4:0.3888 5:0.443293 
1 1:0.092198 2:0.205336 3:0.046838 4:0.946491 5:1 
1 1:-0.033885 2:0.002303 3:0.082378 4:0.087743 5:0.384028 
1 1:0.266994 2:0.062975 3:0.076097 4:0.584725 5:0.252447 
1 1:0.35753 2:0.01379 3:0.038741 4:0.825934 5:1 
1 1:0.288809 2:0.00384 3:0.105814 4:0.444136 5:0.044535 
1 1:0.154261 2:0.002223 3:0.105016 4:0.209473 5:0.13849 
1 1:-0.015236 2:0.001772 3:0.075725 4:0.039613 5:0.160083 
1 1:0.213457 2:0.004275 3:0.066969 4:0.619633 5:0.181013 
1 1:-0.028006 2:0.000831 3:0.086394 4:0.011574 5:0.243814 
1 1:0.07604 2:0.015196 3:0.031997 4:1 5:0.23112 
1 1:-0.125903 2:0.004575 3:0.092656 4:0.145687 5:0.434715 
1 1:0.212374 2:0.002754 3:0.104364 4:0.455096 5:0.045154 
1 1:0.137067 2:0.003639 3:0.095897 4:0.354514 5:0.51245 
1 1:-0.072586 2:0.000459 3:0.078138 4:0.121569 5:0.763183 
1 1:0.023905 2:0.001059 3:0.094089 4:0.366643 5:0.232295 
1 1:0.176976 2:0.003809 3:0.056876 4:0.155706 5:0.43566 
1 1:0.001994 2:0.00333 3:0.042304 4:0.06157 5:0.605884 
1 1:0.03948 2:0.001538 3:0.084076 4:0.309801 5:0.367626 
1 1:-0.004425 2:0.0005 3:0.063658 4:0.417348 5:0.448074 
1 1:0.255438 2:0.007974 3:0.122681 4:0.399147 5:0.038412 
1 1:0.263305 2:0.010078 3:0.051573 4:1 5:0.128402 
1 1:0.138797 2:0.001769 3:0.114949 4:0.339892 5:0.261453 
1 1:0.218404 2:0.002702 3:0.09568 4:0.359342 5:0.414535 
1 1:0.053371 2:0.002474 3:0.046712 4:0.42378 5:0.141764 
1 1:-0.050911 2:0.004546 3:0.095432 4:0.131009 5:0.474639 
1 1:0.26588 2:0.003907 3:0.098107 4:0.472577 5:0.166979 
1 1:0.225885 2:0.005322 3:0.105653 4:0.290907 5:0.155053 
1 1:0.016424 2:0.001282 3:0.084711 4:0.122991 5:0.086456 
1 1:0.151613 2:0.004542 3:0.078768 4:0.529084 5:0.09298 
1 1:0.287526 2:0.031476 3:0.13199 4:0.161818 5:0.110187 
1 1:0.020126 2:0.002715 3:0.049073 4:0.159232 5:0.644654 
1 1:0.047988 2:0.008026 3:0.064844 4:0.214096 5:0.476657 
1 1:0.172568 2:0.016329 3:0.052945 4:0.267459 5:0.538742 
1 1:0.191443 2:0.0053 3:0.074447 4:0.279721 5:0.403694 
1 1:0.248875 2:0.003041 3:0.045411 4:0.232344 5:0.62812 
1 1:0.270419 2:0.011276 3:0.098107 4:0.217921 5:0.431205 
1 1:0.095992 2:0.004589 3:0.016382 4:1 5:1 
1 1:0.31046 2:0.010014 3:0.031484 4:0.705519 5:0.23262 
1 1:0.063847 2:0.00303 3:0.062728 4:0.066396 5:0.504325 
1 1:-0.006396 2:0.003122 3:0.081071 4:0.113522 5:0.381254 
1 1:0.078206 2:0.00261 3:0.051778 4:0.1813 5:0.550885 
1 1:0.082903 2:0.004467 3:0.090335 4:0.15282 5:0.332693 
1 1:-0.049318 2:0.001465 3:0.053188 4:0.131506 5:0.536283 
1 1:0.166836 2:0.003235 3:0.105653 4:0.134147 5:0.400408 
1 1:-0.025848 2:0.012842 3:0.040947 4:0.089904 5:0.178861 
1 1:0.053845 2:0.001188 3:0.047052 4:0.312958 5:0.155655 
1 1:-0.185138 2:0.001925 3:0.075746 4:0.036451 5:0.417649 
1 1:-0.023032 2:0.003828 3:0.061339 4:0.049051 5:0.636647 
1 1:0.312572 2:0.014463 3:0.124311 4:0.78257 5:0.117463 
1 1:0.258407 2:0.009121 3:0.116561 4:0.585083 5:0.070597 
1 1:0.009385 2:0.002068 3:0.100594 4:0.93717 5:0.046846 
1 1:0.034306 2:0.001445 3:0.074225 4:0.662075 5:0.099632 
1 1:0.253067 2:0.018718 3:0.106981 4:0.609351 5:0.141812 
1 1:0.184401 2:0.002677 3:0.069033 4:0.929797 5:0.107126 
1 1:0.08161 2:0.002185 3:0.056063 4:0.483005 5:0.718464 
1 1:0.149062 2:0.037048 3:0.049143 4:1 5:0.79465 
1 1:0.313691 2:0.011574 3:0.096063 4:0.991816 5:0.049056 
1 1:0.064514 2:0.002212 3:0.095897 4:0.501992 5:0.333661 
1 1:0.286842 2:0.011985 3:0.100578 4:0.917373 5:0.465691 
1 1:0.214512 2:0.005188 3:0.115123 4:0.10454 5:0.071479 
1 1:0.568594 2:0.129201 3:0.061315 4:0.436889 5:0.186153 
1 1:0.030706 2:0.003927 3:0.102199 4:0.02427 5:0.2508 
1 1:0.147201 2:0.004124 3:0.110928 4:0.223601 5:0.278635 
1 1:0.135269 2:0.007602 3:0.046892 4:0.031737 5:0.832799 
1 1:0.543179 2:0.053994 3:0.093527 4:0.514492 5:0.156126 
1 1:0.472145 2:0.199937 3:0.072774 4:0.463531 5:0.113074 
1 1:0.240679 2:0.005142 3:0.104852 4:0.288602 5:0.148114 
1 1:0.29522 2:0.021427 3:0.049289 4:0.946075 5:0.095609 
1 1:0.349529 2:0.028318 3:0.112242 4:0.437548 5:0.058998 
1 1:0.335226 2:0.032319 3:0.115449 4:0.322268 5:0.260321 
1 1:0.263431 2:0.009937 3:0.120547 4:0.366249 5:0.145164 
1 1:0.058048 2:0.002704 3:0.092035 4:0.01078 5:0.326546 
1 1:0.440007 2:0.072353 3:0.086104 4:0.374487 5:0.176197 
1 1:0.187978 2:0.006659 3:0.054311 4:0.246615 5:0.741636 
1 1:0.376522 2:0.013762 3:0.094193 4:0.447655 5:0.348667 
1 1:0.224071 2:0.008802 3:0.085656 4:0.28378 5:0.455906 
1 1:0.566389 2:0.095127 3:0.047127 4:1 5:0.099994 
1 1:0.125839 2:0.005826 3:0.046838 4:0.254188 5:0.967067 
1 1:0.224828 2:0.003671 3:0.100578 4:0.33539 5:0.488601 
1 1:0.327054 2:0.027937 3:0.078976 4:0.075376 5:0.104195 
1 1:-0.062449 2:0.002352 3:0.097239 4:0.687717 5:0.398405 
1 1:-0.063814 2:0.000829 3:0.059633 4:0.858573 5:0.12401 
1 1:-0.079533 2:0.001021 3:0.066873 4:1 5:0.110585 
1 1:-0.026566 2:0.000979 3:0.078138 4:0.641876 5:0.409496 
1 1:0.015654 2:0.001839 3:0.118493 4:0.599638 5:0.414731 
1 1:0.110405 2:0.002665 3:0.057774 4:0.310837 5:0.670552 
1 1:0.326793 2:0.03263 3:0.136261 4:0.203868 5:0.048598 
1 1:0.170119 2:0.005965 3:0.037223 4:0.331683 5:0.390712 
1 1:0.009045 2:0.000683 3:0.092803 4:0.096756 5:0.128256 
1 1:-0.016445 2:0.000902 3:0.094739 4:0.195479 5:0.41865 
1 1:0.176448 2:0.010205 3:0.021856 4:0.205413 5:1 
1 1:0.142532 2:0.004007 3:0.050151 4:0.03357 5:0.241713 
1 1:0.19836 2:0.003906 3:0.044143 4:0.527593 5:0.274611 
1 1:-0.103542 2:0.001149 3:0.069416 4:0.008085 5:0.303447 
1 1:0.157932 2:0.00128 3:0.049017 4:0.435061 5:0.152746 
1 1:-0.055658 2:0.00053 3:0.090598 4:0.198221 5:0.131378 
1 1:0.028591 2:0.001372 3:0.094089 4:0.14315 5:0.340074 
1 1:0.100536 2:0.001765 3:0.048635 4:0.236547 5:0.299033 
1 1:-0.166954 2:0.002835 3:0.040195 4:0.113881 5:0.768973 
1 1:0.052313 2:0.002648 3:0.057485 4:0.08122 5:0.496194 
1 1:-0.092182 2:0.006566 3:0.054666 4:0.125601 5:0.549773 
1 1:-0.037811 2:0.002213 3:0.037131 4:0.093691 5:0.768196 
1 1:0.092505 2:0.00103 3:0.084711 4:0.083214 5:0.499395 
1 1:0.143755 2:0.013271 3:0.024932 4:0.326798 5:0.657057 
1 1:-0.028296 2:0.00155 3:0.040947 4:0.13191 5:0.400073 
1 1:-0.165282 2:0.001645 3:0.041798 4:0.032853 5:0.756855 
1 1:-0.018968 2:0.00126 3:0.09037 4:0.019573 5:0.283629 
1 1:0.086918 2:0.002174 3:0.057055 4:0.316214 5:0.499935 
1 1:0.229285 2:0.009286 3:0.053234 4:0.498392 5:0.564555 
1 1:0.267595 2:0.003375 3:0.112921 4:0.119045 5:0.058643 
1 1:-0.057143 2:0.006412 3:0.080053 4:0.008838 5:0.375422 
1 1:-0.011059 2:0.001924 3:0.033825 4:0.39742 5:0.843275 
1 1:0.310383 2:0.01386 3:0.078768 4:0.345814 5:0.537076 
1 1:0.265251 2:0.005095 3:0.031484 4:1 5:0.52032 
1 1:0.173462 2:0.004237 3:0.047052 4:0.443586 5:0.348166 
1 1:-0.052554 2:0.002845 3:0.007324 4:0.966037 5:1 
1 1:0.004637 2:0.004298 3:0.034643 4:0.15317 5:0.91317 
1 1:-0.025484 2:0.001784 3:0.07564 4:0.066844 5:0.327586 
1 1:0.129342 2:0.003799 3:0.036063 4:0.733987 5:0.532693 
1 1:0.045276 2:0.002381 3:0.078581 4:0.24223 5:0.493005 
1 1:0.138458 2:0.003068 3:0.108748 4:0.25708 5:0.043333 
1 1:0.111344 2:0.002101 3:0.087816 4:0.335294 5:0.075408 
1 1:0.031493 2:0.003248 3:0.082785 4:0.114963 5:0.143776 
1 1:0.170318 2:0.02156 3:0.054446 4:0.360526 5:0.72847 
1 1:-0.025286 2:0.00238 3:0.089304 4:0.126553 5:0.074151 
1 1:-0.057398 2:0.001331 3:0.05075 4:0.093766 5:0.430666 
1 1:0.029909 2:0.001976 3:0.02641 4:0.067567 5:0.458995 
1 1:0.178178 2:0.0034 3:0.034865 4:0.708037 5:0.347696 
1 1:0.064369 2:0.002417 3:0.03089 4:0.019256 5:0.681899 
1 1:0.095985 2:0.0022 3:0.022604 4:1 5:0.33124 
1 1:0.0733 2:0.00173 3:0.08705 4:0.218663 5:0.136732 
1 1:0.269832 2:0.033746 3:0.111669 4:0.253019 5:0.0422 
1 1:0.161443 2:0.001654 3:0.101544 4:0.140588 5:0.315106 
1 1:0.18873 2:0.021543 3:0.13199 4:0.173505 5:0.320511 
1 1:0.225056 2:0.003169 3:0.048635 4:0.421947 5:0.449391 
1 1:-0.022343 2:0.00193 3:0.055876 4:0.038751 5:0.458725 
1 1:-0.150688 2:0.00515 3:0.036145 4:0.599041 5:0.855134 
1 1:-0.15644 2:0.000861 3:0.059571 4:0.370738 5:0.478819 
1 1:0.181548 2:0.00421 3:0.123067 4:0.330763 5:0.038292 
1 1:0.115487 2:0.002901 3:0.079662 4:0.538161 5:0.083126 
1 1:0.076256 2:0.002971 3:0.066544 4:0.488074 5:0.45164 
1 1:-0.00568 2:0.004982 3:0.078416 4:0.20985 5:0.084448 
1 1:-0.045008 2:0.001067 3:0.031635 4:0.520166 5:0.90164 
1 1:-0.214971 2:0.002903 3:0.082378 4:0.126163 5:0.549856 
1 1:0.030373 2:0.00219 3:0.049073 4:0.679479 5:0.862065 
1 1:0.0092 2:0.002708 3:0.062728 4:0.614411 5:0.261157 
1 1:0.165143 2:0.007972 3:0.075746 4:0.337305 5:0.216273 
1 1:-0.076654 2:0.003372 3:0.041798 4:0.207205 5:0.175218 
1 1:0.185278 2:0.008731 3:0.034643 4:1 5:0.211406 
1 1:0.42755 2:0.125398 3:0.035338 4:0.18492 5:0.322995 
1 1:-0.03819 2:0.004065 3:0.06373 4:0.005696 5:0.612759 
1 1:0.82971 2:0.05616 3:0.014602 4:0.803877 5:1 
1 1:0.493723 2:0.104315 3:0.028136 4:0.262359 5:0.55196 
1 1:0.465164 2:0.044437 3:0.041888 4:0.257118 5:0.417762 
1 1:0.649081 2:0.138549 3:0.015171 4:0.518471 5:1 
1 1:0.316294 2:0.211047 3:0.054587 4:0.188435 5:0.601649 
1 1:-0.064379 2:0.001671 3:0.069229 4:0.085652 5:0.564085 
1 1:0.094499 2:0.006092 3:0.078976 4:0.140969 5:0.593073 
1 1:0.328091 2:0.011107 3:0.08492 4:0.493159 5:0.315392 
1 1:0.129624 2:0.027722 3:0.091501 4:0.231602 5:0.128465 
1 1:0.056715 2:0.003305 3:0.085211 4:0.201328 5:0.113736 
1 1:0.043498 2:0.011191 3:0.09896 4:0.086677 5:0.13608 
1 1:-0.074033 2:0.003542 3:0.069685 4:0.108611 5:0.350726 
1 1:0.228141 2:0.007343 3:0.072411 4:0.585319 5:0.298316 
1 1:0.015434 2:0.00171 3:0.096588 4:0.381345 5:0.139422 
1 1:0.148747 2:0.005291 3:0.123475 4:0.310566 5:0.245821 
1 1:0.112274 2:0.023706 3:0.071239 4:0.233729 5:0.344216 
1 1:0.010911 2:0.006478 3:0.061291 4:0.222272 5:0.399707 
1 1:0.232707 2:0.061316 3:0.040546 4:0.796437 5:0.770002 
1 1:0.318486 2:0.013346 3:0.050835 4:0.923083 5:0.459921 
1 1:0.00948 2:0.003805 3:0.101037 4:0.119853 5:0.24776 
1 1:0.125832 2:0.006237 3:0.107788 4:0.360444 5:0.569545 
1 1:0.218944 2:0.103849 3:0.036818 4:0.370016 5:0.24004 
1 1:0.346502 2:0.243682 3:0.015137 4:1 5:0.566921 
1 1:0.488281 2:0.0447 3:0.04819 4:0.931867 5:0.470828 
1 1:0.298026 2:0.008669 3:0.068155 4:0.584852 5:0.332903 
1 1:0.258325 2:0.068131 3:0.029145 4:0.969495 5:0.303238 
1 1:-0.0833 2:0.001901 3:0.082108 4:0.018435 5:0.118034 
1 1:0.049307 2:0.006744 3:0.094008 4:0.101979 5:0.259982 
1 1:-0.072925 2:0.003109 3:0.074034 4:0.143123 5:0.291779 
1 1:0.248192 2:0.011648 3:0.050782 4:0.566354 5:0.460403 
1 1:0.022044 2:0.004279 3:0.101927 4:0.199607 5:0.262768 
1 1:-0.016757 2:0.001502 3:0.080668 4:0.085083 5:0.594499 
1 1:0.245429 2:0.011199 3:0.057071 4:0.360788 5:0.378504 
1 1:0.178131 2:0.012626 3:0.07188 4:0.255765 5:0.603541 
1 1:-0.118563 2:0.003738 3:0.078421 4:0.103149 5:0.312692 
1 1:0.082616 2:0.006349 3:0.088948 4:0.176373 5:0.350998 
1 1:-0.001618 2:0.003276 3:0.086747 4:0.067817 5:0.288572 
1 1:0.101211 2:0.00202 3:0.080088 4:0.18058 5:0.542978 
1 1:-0.167197 2:0.000786 3:0.081141 4:0.081566 5:0.591031 
1 1:0.044917 2:0.021777 3:0.009315 4:1 5:1 
1 1:0.305444 2:0.00732 3:0.102493 4:0.212854 5:0.221372 
1 1:0.167403 2:0.025348 3:0.084369 4:0.229525 5:0.268927 
1 1:0.353958 2:0.042196 3:0.099816 4:0.240665 5:0.442228 
1 1:-0.128197 2:0.003414 3:0.059157 4:0.087017 5:0.365157 
1 1:0.243927 2:0.007835 3:0.106138 4:0.40687 5:0.510673 
1 1:0.30318 2:0.066281 3:0.074535 4:0.419554 5:0.157706 
1 1:0.177028 2:0.006894 3:0.066314 4:0.381748 5:0.146146 
1 1:0.088787 2:0.142136 3:0.061972 4:0.204245 5:0.217299 
1 1:0.468152 2:0.024775 3:0.054353 4:1 5:0.24776 
1 1:0.171955 2:0.002579 3:0.08919 4:0.601061 5:0.241717 
1 1:0.156318 2:0.007802 3:0.09816 4:0.2048 5:0.249578 
1 1:0.21893 2:0.006813 3:0.063597 4:0.807821 5:0.565685 
1 1:0.140548 2:0.001949 3:0.124536 4:0.561996 5:0.538719 
1 1:0.132975 2:0.003492 3:0.031994 4:0.744696 5:1 
1 1:0.341051 2:0.008383 3:0.11365 4:0.609276 5:0.205719 
1 1:0.052137 2:0.003885 3:0.062517 4:0.285835 5:0.229571 
1 1:0.160793 2:0.009047 3:0.075738 4:0.363737 5:0.284647 
1 1:0.275709 2:0.00726 3:0.074636 4:0.029928 5:0.129851 
1 1:0.460878 2:0.031698 3:0.097281 4:0.436262 5:0.240334 
1 1:0.189975 2:0.03125 3:0.08492 4:0.115777 5:0.128353 
1 1:0.07708 2:0.001389 3:0.101927 4:0.099785 5:0.091386 
1 1:0.397104 2:0.037218 3:0.064894 4:0.438843 5:0.332874 
1 1:0.506092 2:0.060142 3:0.074669 4:0.340529 5:0.580996 
1 1:0.240084 2:0.004243 3:0.077729 4:0.331485 5:0.390496 
1 1:0.096513 2:0.013146 3:0.105123 4:0.106426 5:0.233266 
1 1:0.463717 2:0.033446 3:0.063159 4:0.343541 5:0.494318 
1 1:0.453583 2:0.022545 3:0.095358 4:0.330641 5:0.24518 
1 1:0.239156 2:0.007887 3:0.081548 4:0.220341 5:0.504261 
1 1:0.190279 2:0.00241 3:0.06139 4:0.42523 5:1 
1 1:0.229087 2:0.010442 3:0.114566 4:0.079899 5:0.077141 
1 1:0.13113 2:0.00629 3:0.105197 4:0.016114 5:0.507887 
1 1:0.021341 2:0.00943 3:0.098045 4:0.103735 5:0.087526 
1 1:0.144097 2:0.007491 3:0.104832 4:0.122891 5:0.088853 
1 1:0.758605 2:0.084663 3:0.03715 4:0.812204 5:0.610744 
1 1:0.084794 2:0.004575 3:0.109952 4:0.17267 5:0.080379 
1 1:0.315401 2:0.036881 3:0.085698 4:0.083077 5:0.252066 
1 1:0.23709 2:0.006466 3:0.116776 4:0.258386 5:0.194761 
1 1:0.390744 2:0.109807 3:0.114071 4:0.169407 5:0.204959 
1 1:0.271059 2:0.079072 3:0.106138 4:0.711977 5:0.301439 
1 1:0.184506 2:0.012546 3:0.124627 4:0.236966 5:0.077764 
1 1:0.194414 2:0.005621 3:0.066816 4:0.220999 5:0.201547 
1 1:0.114739 2:0.008652 3:0.079681 4:0.795772 5:0.169006 
1 1:0.279661 2:0.008557 3:0.059933 4:1 5:0.600262 
1 1:0.08271 2:0.001036 3:0.095167 4:0.857945 5:0.704969 
1 1:0.008626 2:0.004112 3:0.074567 4:0.372753 5:0.429065 
1 1:0.391344 2:0.018469 3:0.095566 4:0.845277 5:0.244648 
1 1:0.334299 2:0.00842 3:0.116694 4:0.573139 5:0.526077 
1 1:-0.078518 2:0.002738 3:0.054202 4:0.384605 5:0.264788 
1 1:0.143284 2:0.003345 3:0.08059 4:0.301785 5:0.854095 
1 1:0.05109 2:0.00434 3:0.102783 4:0.481695 5:0.227469 
1 1:0.046747 2:0.013549 3:0.091501 4:0.167856 5:0.119121 
1 1:0.238429 2:0.005772 3:0.074535 4:0.618192 5:0.429249 
1 1:0.196457 2:0.043379 3:0.018007 4:1 5:0.538202 
1 1:0.246384 2:0.026439 3:0.075621 4:0.119062 5:0.178079 
1 1:0.260606 2:0.007663 3:0.062673 4:0.616892 5:0.21487 
1 1:0.275191 2:0.075786 3:0.042776 4:0.891455 5:0.503991 
1 1:0.136665 2:0.023635 3:0.031138 4:0.459247 5:0.786785 
1 1:0.243803 2:0.008835 3:0.126427 4:0.289053 5:0.284558 
1 1:-0.047476 2:0.002287 3:0.090764 4:0.186724 5:0.352497 
1 1:0.402526 2:0.102802 3:0.088561 4:0.556167 5:0.263997 
1 1:0.039489 2:0.004265 3:0.08837 4:0.143838 5:0.162409 
1 1:0.080617 2:0.004311 3:0.051779 4:0.378459 5:0.416364 
1 1:0.174196 2:0.009557 3:0.084503 4:0.169223 5:0.104586 
1 1:-0.160245 2:0.008097 3:0.076545 4:0.207572 5:0.11211 
1 1:0.058914 2:0.00869 3:0.080836 4:0.366904 5:0.109331 
1 1:0.051352 2:0.014307 3:0.011755 4:0.135169 5:0.824479 
1 1:0.096472 2:0.006316 3:0.065182 4:0.463144 5:0.358689 
1 1:0.103075 2:0.010827 3:0.085211 4:0.145915 5:0.127915 
1 1:0.170144 2:0.004883 3:0.066314 4:0.562487 5:0.482468 
1 1:0.112734 2:0.00925 3:0.018007 4:1 5:0.652779 
1 1:0.049044 2:0.004721 3:0.057829 4:0.126038 5:0.232869 
1 1:0.194202 2:0.010094 3:0.045113 4:0.69378 5:0.29851 
1 1:0.238249 2:0.007093 3:0.059239 4:0.5211 5:0.363927 
1 1:0.165659 2:0.025489 3:0.031855 4:0.363396 5:0.76906 
1 1:0.217103 2:0.00856 3:0.112082 4:0.263943 5:0.320978 
1 1:0.233279 2:0.007315 3:0.125351 4:0.218901 5:0.249065 
1 1:0.041634 2:0.002422 3:0.077189 4:0.177742 5:0.414491 
1 1:0.307229 2:0.020537 3:0.073795 4:0.540323 5:0.316824 
1 1:-0.023762 2:0.003392 3:0.070885 4:0.145162 5:0.20247 
1 1:0.000596 2:0.004432 3:0.064363 4:0.246469 5:0.334955 
1 1:-0.068381 2:0.009637 3:0.085749 4:0.134999 5:0.103066 
1 1:-0.110733 2:0.016498 3:0.070097 4:0.183493 5:0.122424 
1 1:-0.077282 2:0.005651 3:0.080432 4:0.298508 5:0.109879 
1 1:-0.02027 2:0.013289 3:0.009691 4:0.132717 5:1 
1 1:0.157443 2:0.008411 3:0.05071 4:0.481919 5:0.461049 
1 1:0.06132 2:0.002616 3:0.061972 4:0.258973 5:0.516266 
1 1:0.024604 2:0.004798 3:0.066816 4:0.160133 5:0.811216 
1 1:-0.099971 2:0.002389 3:0.075621 4:0.102456 5:0.155442 
1 1:-0.078426 2:0.00304 3:0.057829 4:0.108459 5:0.167589 
1 1:0.30877 2:0.043177 3:0.013467 4:1 5:1 
1 1:0.214017 2:0.008367 3:0.11302 4:0.117519 5:0.190751 
1 1:-0.12027 2:0.017322 3:0.078365 4:0.063559 5:0.312623 
1 1:0.143294 2:0.006795 3:0.068205 4:0.186624 5:0.527467 
1 1:0.099303 2:0.00462 3:0.044752 4:0.131909 5:0.71493 
1 1:0.289636 2:0.014392 3:0.056358 4:0.304411 5:0.414848 
1 1:0.056715 2:0.01117 3:0.014352 4:0.308483 5:1 
1 1:-0.044826 2:0.015061 3:0.087618 4:0.063163 5:0.097943 
1 1:0.031584 2:0.002835 3:0.066642 4:0.008304 5:0.145427 
1 1:0.245892 2:0.154672 3:0.048298 4:0.21771 5:0.484077 
1 1:-0.102722 2:0.01229 3:0.069685 4:0.291886 5:0.156414 
1 1:0.070982 2:0.001863 3:0.124342 4:0.468182 5:0.215398 
1 1:0.328984 2:0.079415 3:0.069745 4:0.844736 5:0.309721 
1 1:0.181305 2:0.021973 3:0.057513 4:1 5:0.618681 
1 1:0.062122 2:0.002749 3:0.117069 4:0.455328 5:0.259271 
1 1:0.046413 2:0.021731 3:0.027564 4:0.839717 5:0.889642 
1 1:-0.044921 2:0.002191 3:0.094225 4:0.200979 5:0.26 
1 1:-0.014166 2:0.006612 3:0.061762 4:0.726793 5:0.505494 
1 1:0.197978 2:0.007533 3:0.119876 4:0.544133 5:0.195035 
1 1:-0.128638 2:0.00362 3:0.036262 4:0.464205 5:0.690328 
1 1:0.040307 2:0.033026 3:0.042118 4:0.449625 5:0.209835 
1 1:0.047325 2:0.004587 3:0.07973 4:0.519019 5:0.545417 
1 1:-0.192633 2:0.008538 3:0.075198 4:0.279814 5:0.114119 
1 1:0.160808 2:0.010013 3:0.097545 4:0.273231 5:0.095491 
1 1:0.165051 2:0.008511 3:0.092396 4:0.675598 5:0.245562 
1 1:0.208381 2:0.003598 3:0.098221 4:0.564129 5:0.231001 
1 1:0.001311 2:0.032469 3:0.049965 4:0.786101 5:0.176881 
1 1:0.019971 2:0.000927 3:0.123739 4:0.555486 5:0.356729 
1 1:0.031409 2:0.024599 3:0.02444 4:0.545257 5:1 
1 1:-0.022914 2:0.006847 3:0.051472 4:0.286158 5:0.419677 
1 1:-0.049291 2:0.003667 3:0.080668 4:0.204186 5:0.11547 
1 1:0.049808 2:0.006203 3:0.107611 4:0.387759 5:0.282059 
1 1:0.021351 2:0.002768 3:0.078009 4:0.415255 5:0.557452 
1 1:0.052294 2:0.001649 3:0.047957 4:0.309114 5:1 
1 1:-0.14812 2:0.001809 3:0.078724 4:0.265023 5:0.118321 
1 1:0.119562 2:0.009716 3:0.053806 4:1 5:0.820375 
1 1:0.334212 2:0.041708 3:0.072411 4:0.198278 5:0.150525 
1 1:0.209817 2:0.009769 3:0.057071 4:0.26025 5:0.163214 
1 1:0.638687 2:0.193947 3:0.064894 4:0.633224 5:0.412721 
1 1:0.246381 2:0.018498 3:0.069745 4:0.106478 5:0.350424 
1 1:0.157662 2:0.002631 3:0.086061 4:0.431454 5:0.504086 
1 1:0.277953 2:0.008679 3:0.121128 4:0.335158 5:0.293757 
1 1:0.424371 2:0.049633 3:0.053375 4:0.704945 5:0.568666 
1 1:0.221077 2:0.006523 3:0.044677 4:0.365686 5:0.548861 
1 1:0.492049 2:0.049199 3:0.031981 4:0.990766 5:0.976222 
1 1:0.551192 2:0.056171 3:0.113452 4:0.40584 5:0.206079 
1 1:0.07776 2:0.003394 3:0.073076 4:0.1626 5:0.342561 
1 1:0.429633 2:0.034819 3:0.121814 4:0.31295 5:0.503967 
1 1:0.259491 2:0.022646 3:0.080597 4:0.165855 5:0.109655 
1 1:0.1281 2:0.002914 3:0.095492 4:0.30589 5:0.455388 
1 1:0.224281 2:0.052696 3:0.087087 4:0.17055 5:0.098539 
1 1:0.553713 2:0.304716 3:0.049548 4:0.889304 5:0.457926 
1 1:0.570695 2:0.031626 3:0.039112 4:1 5:0.580107 
1 1:0.354906 2:0.021487 3:0.081089 4:0.341905 5:0.108988 
1 1:0.150566 2:0.002815 3:0.132278 4:0.366792 5:0.3337 
1 1:0.173905 2:0.009913 3:0.085824 4:0.109604 5:0.284771 
1 1:0.386607 2:0.203738 3:0.021601 4:0.481303 5:1 
1 1:0.343794 2:0.013373 3:0.121351 4:0.232548 5:0.192663 
1 1:0.196123 2:0.00233 3:0.07188 4:0.23824 5:0.129587 
1 1:0.370681 2:0.024069 3:0.074669 4:0.634509 5:0.358691 
1 1:0.241244 2:0.012158 3:0.086061 4:0.557148 5:0.251 
1 1:0.379112 2:0.016695 3:0.043382 4:1 5:0.699657 
1 1:0.156636 2:0.018114 3:0.109329 4:0.334153 5:0.285566 
1 1:0.037307 2:0.002859 3:0.104354 4:0.289913 5:0.394058 
1 1:0.08968 2:0.002825 3:0.125719 4:0.349615 5:0.488314 
1 1:0.09156 2:0.005682 3:0.053428 4:0.05342 5:1 
1 1:0.335134 2:0.041279 3:0.080276 4:0.270208 5:0.116034 
1 1:0.38624 2:0.012694 3:0.100767 4:0.504164 5:0.225164 
1 1:0.380148 2:0.021204 3:0.078393 4:0.575238 5:0.289427 
1 1:0.107477 2:0.008047 3:0.103695 4:0.115601 5:0.208317 
1 1:0.097409 2:0.032634 3:0.096588 4:0.187577 5:0.112847 
1 1:0.394264 2:0.030007 3:0.054353 4:1 5:0.588637 
1 1:0.108788 2:0.002744 3:0.079681 4:0.454757 5:0.68024 
1 1:0.395925 2:0.016323 3:0.062673 4:0.418672 5:0.187556 
1 1:0.072921 2:0.005483 3:0.045113 4:0.470854 5:0.214829 
1 1:0.116074 2:0.008856 3:0.013467 4:0.788675 5:1 
1 1:0.114482 2:0.002927 3:0.09956 4:0.451808 5:0.216541 
1 1:0.199771 2:0.031107 3:0.068212 4:0.247289 5:0.35915 
1 1:0.366401 2:0.013891 3:0.073592 4:0.585767 5:0.488856 
1 1:0.289905 2:0.008462 3:0.13573 4:0.294583 5:0.230018 
1 1:0.161983 2:0.00334 3:0.140075 4:0.419249 5:0.478958 
1 1:0.134461 2:0.003509 3:0.044415 4:0.450117 5:0.720349 
1 1:0.628505 2:0.053165 3:0.059606 4:0.974761 5:0.392242 
1 1:0.305733 2:0.01453 3:0.134788 4:0.356898 5:0.455458 
1 1:0.298315 2:0.012721 3:0.025775 4:0.581729 5:0.556825 
1 1:-0.056171 2:0.00139 3:0.09763 4:0.236768 5:0.22082 
1 1:0.148283 2:0.015223 3:0.083929 4:0.223312 5:0.102247 
1 1:0.236846 2:0.017967 3:0.12876 4:0.431829 5:0.176212 
1 1:0.131864 2:0.012024 3:0.104956 4:0.333337 5:0.084205 
1 1:0.083729 2:0.008161 3:0.054244 4:0.034552 5:0.178665 
1 1:0.381427 2:0.028929 3:0.046218 4:0.770493 5:0.505864 
1 1:0.050536 2:0.002774 3:0.08919 4:0.568363 5:0.358721 
1 1:0.176005 2:0.009826 3:0.042776 4:0.572098 5:0.274797 
1 1:0.136681 2:0.008312 3:0.059239 4:0.33442 5:0.1636 
1 1:0.25489 2:0.007208 3:0.09956 4:0.427229 5:0.135261 
1 1:0.008359 2:0.006275 3:0.067892 4:0.23172 5:0.360844 
1 1:0.23255 2:0.010233 3:0.115232 4:0.161807 5:0.27765 
1 1:0.165874 2:0.002337 3:0.131297 4:0.412714 5:0.178069 
1 1:0.099316 2:0.007382 3:0.021559 4:1 5:1 
1 1:0.223309 2:0.015991 3:0.114484 4:0.152685 5:0.074958 
1 1:0.147042 2:0.022797 3:0.111521 4:0.292586 5:0.079248 
1 1:0.097396 2:0.006223 3:0.054529 4:0.032056 5:0.177731 
1 1:0.145689 2:0.00197 3:0.136488 4:0.320174 5:1 
1 1:0.313103 2:0.081032 3:0.107919 4:0.307748 5:0.216643 
1 1:0.204902 2:0.01103 3:0.057513 4:0.293555 5:0.42495 
1 1:0.314826 2:0.015933 3:0.121128 4:0.780547 5:0.178335 
1 1:0.241003 2:0.014753 3:0.076657 4:0.484539 5:0.319889 
1 1:0.324823 2:0.024925 3:0.118941 4:0.60564 5:0.262487 
1 1:0.232156 2:0.016117 3:0.052655 4:0.513027 5:0.475416 
1 1:0.152298 2:0.01135 3:0.08953 4:0.339438 5:0.098714 
1 1:0.269103 2:0.00876 3:0.076098 4:0.872664 5:0.571453 
1 1:0.290796 2:0.011386 3:0.098367 4:0.640772 5:0.089845 
1 1:0.100704 2:0.003616 3:0.145511 4:0.580136 5:0.937991 
1 1:0.169594 2:0.011829 3:0.110304 4:1 5:0.400178 
1 1:0.081638 2:0.004514 3:0.100006 4:0.236351 5:0.216001 
1 1:0.273681 2:0.010775 3:0.030353 4:0.571709 5:0.306882 
1 1:0.316615 2:0.014626 3:0.077729 4:0.617658 5:0.34457 
1 1:0.230261 2:0.005852 3:0.117069 4:0.074114 5:0.208767 
1 1:0.090982 2:0.001751 3:0.107611 4:0.150505 5:0.445651 
1 1:0.622199 2:0.312821 3:0.053375 4:0.910313 5:0.404708 
1 1:0.173428 2:0.008404 3:0.089578 4:0.21309 5:0.273746 
1 1:0.298736 2:0.012262 3:0.083322 4:0.444294 5:0.374696 
1 1:0.264645 2:0.095794 3:0.138343 4:0.321947 5:0.443753 
1 1:0.017396 2:0.003184 3:0.096648 4:0.029925 5:0.55281 
1 1:0.130866 2:0.002084 3:0.108185 4:0.315453 5:0.401959 
1 1:0.1754 2:0.00528 3:0.097307 4:0.160498 5:0.492841 
1 1:0.380578 2:0.077032 3:0.037734 4:0.582513 5:0.246854 
1 1:0.314032 2:0.016143 3:0.087431 4:0.588814 5:0.25951 
1 1:0.418013 2:0.011963 3:0.066064 4:0.691698 5:0.343443 
1 1:0.296935 2:0.008536 3:0.130167 4:0.435487 5:0.339111 
1 1:0.046568 2:0.004719 3:0.065902 4:0.184321 5:0.327782 
1 1:-0.147453 2:0.02674 3:0.071239 4:0.216515 5:0.153001 
1 1:-0.08364 2:0.001945 3:0.078421 4:0.203468 5:0.118778 
1 1:0.290665 2:0.016069 3:0.105123 4:0.419942 5:0.254778 
1 1:0.14548 2:0.017993 3:0.027564 4:0.289444 5:0.886688 
1 1:0.421111 2:0.044965 3:0.044677 4:1 5:0.483498 
1 1:0.131373 2:0.002502 3:0.128192 4:0.311177 5:0.338416 
1 1:0.269676 2:0.034152 3:0.076657 4:0.568947 5:0.464177 
1 1:0.300013 2:0.019916 3:0.089578 4:0.451253 5:0.338841 
1 1:0.244296 2:0.019268 3:0.047287 4:0.71986 5:0.660235 
1 1:0.106755 2:0.02173 3:0.121574 4:0.406867 5:0.192311 
1 1:0.091021 2:0.01869 3:0.033303 4:0.383295 5:0.751664 
1 1:0.128241 2:0.045965 3:0.057 4:0.25194 5:0.15505 
1 1:0.201644 2:0.005247 3:0.070027 4:0.448123 5:0.620994 
1 1:0.34838 2:0.00874 3:0.071074 4:0.284369 5:0.131057 
1 1:0.072592 2:0.006188 3:0.078133 4:0.605847 5:0.29039 
1 1:0.299514 2:0.006825 3:0.078351 4:0.536281 5:0.289583 
1 1:0.169411 2:0.030424 3:0.062205 4:0.478821 5:0.142076 
1 1:0.15261 2:0.005982 3:0.11332 4:0.459969 5:0.389528 
1 1:0.005843 2:0.009968 3:0.041197 4:0.245301 5:0.593256 
1 1:0.172774 2:0.006416 3:0.120856 4:0.250851 5:0.193453 
1 1:-0.09629 2:0.017903 3:0.061291 4:0.35078 5:0.177835 
1 1:0.116226 2:0.004058 3:0.09816 4:0.657082 5:0.32594 
1 1:0.066829 2:0.010015 3:0.031138 4:1 5:0.377509 
1 1:0.12527 2:0.014819 3:0.031855 4:0.791287 5:0.304236 
1 1:0.000457 2:0.004502 3:0.078365 4:0.160829 5:0.171845 
1 1:0.084886 2:0.003604 3:0.068212 4:0.793403 5:0.19742 
1 1:0.201924 2:0.016064 3:0.067892 4:0.786224 5:0.317542 
1 1:0.179714 2:0.008013 3:0.099223 4:0.478194 5:0.314651 
1 1:0.170111 2:0.004419 3:0.106751 4:0.222235 5:0.299708 
1 1:0.296843 2:0.145541 3:0.069689 4:0.989357 5:0.33549 
1 1:-0.026497 2:0.003455 3:0.081332 4:0.337267 5:0.26507 
1 1:0.046439 2:0.010214 3:0.054485 4:0.367385 5:0.162206 
1 1:-0.219393 2:0.04692 3:0.046738 4:0.475871 5:0.18361 
1 1:0.217144 2:0.006594 3:0.108738 4:0.606798 5:0.208659 
1 1:0.04225 2:0.031674 3:0.050045 4:0.829585 5:0.176597 
1 1:-0.026203 2:0.007802 3:0.024499 4:0.090785 5:0.395595 
1 1:0.281241 2:0.050329 3:0.047982 4:0.880702 5:0.487263 
1 1:0.287111 2:0.045549 3:0.063597 4:0.976369 5:0.503079 
1 1:0.055399 2:0.006543 3:0.059933 4:0.6907 5:0.904372 
1 1:0.136192 2:0.0066 3:0.112082 4:0.216508 5:0.086468 
1 1:0.097295 2:0.008469 3:0.068205 4:0.177895 5:0.197443 
1 1:0.209074 2:0.009959 3:0.073592 4:0.707985 5:0.18299 
1 1:0.175924 2:0.004475 3:0.06709 4:1 5:1 
1 1:0.263801 2:0.018143 3:0.035976 4:0.634849 5:0.889328 
1 1:0.290185 2:0.010335 3:0.121428 4:0.546628 5:0.192541 
1 1:0.095773 2:0.005483 3:0.055839 4:0.306762 5:0.257024 
1 1:0.110075 2:0.005459 3:0.116492 4:0.349228 5:0.200701 
1 1:0.662748 2:0.153913 3:0.040546 4:0.2509 5:0.268823 
1 1:0.067285 2:0.003708 3:0.088948 4:0.118314 5:0.104721 
1 1:0.33122 2:0.014429 3:0.063159 4:0.460993 5:0.424059 
1 1:0.21568 2:0.030295 3:0.061762 4:0.085196 5:0.395715 
1 1:0.380275 2:0.014691 3:0.031981 4:0.921378 5:0.675448 
1 1:0.184733 2:0.006395 3:0.109329 4:0.240645 5:0.396807 
1 1:0.501469 2:0.085688 3:0.13573 4:0.188667 5:0.099215 
1 1:0.306432 2:0.016226 3:0.118941 4:0.241842 5:0.29916 
1 1:0.39035 2:0.028432 3:0.083322 4:0.319965 5:0.364282 
1 1:0.166883 2:0.01633 3:0.047287 4:0.244806 5:0.518573 
1 1:-0.00378 2:0.003158 3:0.099223 4:0.095456 5:0.246905 
1 1:0.345779 2:0.044182 3:0.083055 4:0.392794 5:0.281498 
1 1:0.141803 2:0.006396 3:0.080588 4:0.104469 5:0.310626 
1 1:0.280973 2:0.006794 3:0.10815 4:0.249756 5:0.567641 
1 1:0.186447 2:0.002834 3:0.113804 4:0.181862 5:0.382113 
1 1:0.34066 2:0.241404 3:0.055412 4:0.189917 5:0.154866 
1 1:0.187838 2:0.007823 3:0.085866 4:0.155242 5:0.108479 
1 1:0.707687 2:0.107292 3:0.03122 4:1 5:0.726737 
1 1:0.625027 2:0.052626 3:0.038304 4:0.723488 5:0.592341 
1 1:0.587221 2:0.094676 3:0.053676 4:0.365983 5:0.164653 
1 1:0.13668 2:0.005544 3:0.084016 4:0.079331 5:0.290901 
1 1:0.054085 2:0.005184 3:0.038419 4:0.191742 5:0.562252 
1 1:0.083278 2:0.003904 3:0.089513 4:0.223377 5:0.261191 
1 1:0.161017 2:0.002126 3:0.124536 4:0.679254 5:0.256907 
1 1:0.137328 2:0.003739 3:0.095167 4:0.592582 5:0.569544 
1 1:0.201678 2:0.002719 3:0.06709 4:1 5:0.536231 
1 1:0.127443 2:0.002496 3:0.102169 4:0.304538 5:0.313151 
1 1:0.266815 2:0.03218 3:0.031994 4:1 5:1 
1 1:-0.039898 2:0.002852 3:0.074567 4:0.286044 5:0.726888 
1 1:0.071482 2:0.002636 3:0.090764 4:0.170171 5:0.129508 
1 1:-0.090672 2:0.006719 3:0.077189 4:0.161985 5:0.125555 
1 1:-0.054679 2:0.004958 3:0.044752 4:0.139699 5:0.300918 
1 1:0.272194 2:0.026768 3:0.044415 4:0.604431 5:0.303198 
1 1:-0.084919 2:0.002744 3:0.035976 4:0.705329 5:1 
1 1:-0.005858 2:0.000604 3:0.102169 4:0.338347 5:0.656659 
1 1:0.085635 2:0.003899 3:0.101082 4:0.338347 5:0.231298 
1 1:0.005696 2:0.006143 3:0.038576 4:0.228796 5:0.372048 
1 1:0.032338 2:0.015728 3:0.104807 4:0.129827 5:0.205699 
1 1:0.255334 2:0.008874 3:0.090484 4:0.231662 5:0.258387 
1 1:0.201618 2:0.017955 3:0.11365 4:0.313992 5:0.281515 
1 1:0.459924 2:0.021436 3:0.095358 4:0.357017 5:0.280867 
1 1:0.279197 2:0.007514 3:0.095566 4:0.24894 5:0.567169 
1 1:0.298679 2:0.012548 3:0.088561 4:0.194524 5:0.132729 
1 1:0.218586 2:0.010376 3:0.073795 4:0.188983 5:0.13133 
1 1:0.285047 2:0.012359 3:0.056358 4:0.123727 5:0.238946 
1 1:0.192236 2:0.00402 3:0.119876 4:0.051325 5:0.20388 
1 1:0.316387 2:0.005249 3:0.113452 4:0.303695 5:0.190402 
1 1:0.414516 2:0.013928 3:0.059606 4:0.502345 5:0.225926 
1 1:0.317697 2:0.009934 3:0.069689 4:0.158916 5:0.351541 
1 1:0.278926 2:0.00891 3:0.121428 4:0.233076 5:0.296271 
1 1:0.522993 2:0.033072 3:0.083055 4:0.316068 5:0.375899 
1 1:0.178589 2:0.003751 3:0.101082 4:0.129851 5:0.316519 
1 1:0.109111 2:0.00274 3:0.085205 4:0.370677 5:0.720501 
1 1:0.340801 2:0.29918 3:0.065969 4:0.149224 5:0.217557 
1 1:0.192783 2:0.009414 3:0.081949 4:0.135142 5:0.107845 
1 1:0.616674 2:0.12276 3:0.045813 4:0.268597 5:0.187315 
1 1:0.530192 2:0.033602 3:0.070243 4:0.519706 5:0.32301 
1 1:0.547773 2:0.139046 3:0.092548 4:0.350131 5:0.245161 
1 1:0.540095 2:0.074221 3:0.073115 4:0.314161 5:0.120876 
1 1:0.137773 2:0.008957 3:0.076814 4:0.016019 5:0.126168 
1 1:0.170397 2:0.006443 3:0.115182 4:0.099711 5:0.597587 
1 1:0.371749 2:0.044162 3:0.120807 4:0.071301 5:0.17881 
1 1:0.772349 2:0.061742 3:0.02338 4:1 5:1 
1 1:-0.034206 2:0.004089 3:0.086747 4:0.222069 5:0.107377 
1 1:0.037553 2:0.052494 3:0.036262 4:0.265619 5:0.673986 
1 1:0.173537 2:0.004646 3:0.073076 4:0.738123 5:0.295603 
1 1:0.204381 2:0.007035 3:0.052655 4:1 5:0.675768 
1 1:0.143992 2:0.008292 3:0.106763 4:0.457106 5:0.284301 
1 1:0.120074 2:0.01364 3:0.080588 4:0.509953 5:0.387406 
1 1:-0.175046 2:0.010382 3:0.078025 4:0.222204 5:0.113269 
1 1:0.175631 2:0.009376 3:0.043486 4:0.871212 5:1 
1 1:0.02928 2:0.00595 3:0.07771 4:0.314002 5:0.119866 
1 1:0.20256 2:0.007981 3:0.111337 4:0.513302 5:0.203787 
1 1:0.215322 2:0.008516 3:0.109945 4:0.461396 5:0.206367 
1 1:-0.156655 2:0.00445 3:0.085407 4:0.421034 5:0.103479 
1 1:0.051878 2:0.002406 3:0.08748 4:0.719352 5:0.504589 
1 1:-0.031546 2:0.005857 3:0.025033 4:0.487378 5:0.976326 
1 1:0.019106 2:0.004373 3:0.051496 4:0.261859 5:0.419476 
1 1:0.178759 2:0.009488 3:0.081548 4:0.47715 5:0.328433 
1 1:0.077244 2:0.002008 3:0.104354 4:0.336932 5:0.415724 
1 1:0.152609 2:0.00308 3:0.041121 4:0.296411 5:0.553078 
1 1:-0.052181 2:0.00188 3:0.088825 4:0.026389 5:0.601496 
1 1:0.017491 2:0.001089 3:0.075087 4:0.499474 5:0.320975 
1 1:0.17687 2:0.012235 3:0.115474 4:0.361323 5:0.196487 
1 1:0.150382 2:0.005759 3:0.108114 4:0.342558 5:0.209863 
1 1:0.333551 2:0.020923 3:0.063913 4:0.6088 5:0.377089 
1 1:-0.098365 2:0.011754 3:0.104623 4:0.125464 5:0.657898 
1 1:0.215035 2:0.005597 3:0.041723 4:1 5:0.5451 
1 1:0.197587 2:0.003621 3:0.116694 4:0.36762 5:0.464478 
1 1:0.392116 2:0.019004 3:0.121814 4:0.510039 5:0.177331 
1 1:0.193066 2:0.007986 3:0.125719 4:0.441248 5:0.345075 
1 1:0.243426 2:0.004641 3:0.10815 4:0.437699 5:0.288679 
1 1:0.342565 2:0.010557 3:0.085205 4:0.807309 5:0.274397 
1 1:0.34275 2:0.016445 3:0.064282 4:0.609829 5:0.639704 
1 1:-0.029538 2:0.003525 3:0.099272 4:0.193716 5:0.229101 
1 1:0.342113 2:0.017193 3:0.133948 4:0.441749 5:0.179929 
1 1:0.502839 2:0.016677 3:0.07707 4:0.854129 5:0.294394 
1 1:0.281115 2:0.00664 3:0.083083 4:0.703289 5:0.273088 
1 1:0.227429 2:0.034813 3:0.116232 4:0.528169 5:0.207353 
1 1:0.307678 2:0.005059 3:0.068831 4:0.30088 5:1 
1 1:0.249489 2:0.009919 3:0.105731 4:0.622602 5:0.215107 
1 1:0.408412 2:0.337668 3:0.108578 4:0.38829 5:0.21533 
1 1:0.327563 2:0.285508 3:0.062517 4:0.491354 5:0.511771 
1 1:0.180754 2:0.008444 3:0.054202 4:0.37782 5:1 
1 1:0.090919 2:0.004385 3:0.08837 4:0.16781 5:0.133017 
1 1:-0.088782 2:0.00477 3:0.070885 4:0.169355 5:0.136722 
1 1:0.171539 2:0.011429 3:0.014352 4:0.418223 5:0.938301 
1 1:0.178808 2:0.012655 3:0.025775 4:1 5:0.522469 
1 1:0.091135 2:0.00289 3:0.092639 4:0.102907 5:0.264453 
1 1:0.032337 2:0.004208 3:0.055839 4:0.436296 5:0.644274 
1 1:-0.003562 2:0.001192 3:0.119456 4:0.277837 5:0.561628 
1 1:0.042013 2:0.00316 3:0.038576 4:0.292892 5:0.829387 
1 1:0.29277 2:0.01636 3:0.065969 4:0.497753 5:0.354408 
1 1:0.193775 2:0.00248 3:0.119958 4:0.108904 5:0.179718 
1 1:0.072134 2:0.036139 3:0.061258 4:0.328537 5:0.381664 
1 1:0.278433 2:0.014673 3:0.075738 4:0.343949 5:0.422431 
1 1:0.261295 2:0.015223 3:0.051779 4:0.242879 5:0.227019 
1 1:0.042591 2:0.007522 3:0.064363 4:0.158173 5:0.150576 
1 1:0.078614 2:0.002938 3:0.09763 4:0.223887 5:0.137934 
1 1:0.203469 2:0.009103 3:0.021559 4:1 5:1 
1 1:-0.138692 2:0.005079 3:0.081332 4:0.099401 5:0.301216 
1 1:-0.047091 2:0.003191 3:0.062772 4:0.01431 5:0.154393 
1 1:0.243699 2:0.008432 3:0.099272 4:0.198211 5:0.618401 
1 1:0.005535 2:0.001653 3:0.034869 4:0.5863 5:0.691196 
1 1:0.024458 2:0.00142 3:0.024352 4:0.870966 5:0.989681 
1 1:0.036797 2:0.002946 3:0.022743 4:1 5:1 
1 1:0.060392 2:0.094883 3:0.036818 4:0.124306 5:0.296041 
1 1:0.11903 2:0.004728 3:0.114566 4:0.114335 5:0.233777 
1 1:0.065241 2:0.070956 3:0.084503 4:0.07844 5:0.139105 
1 1:0.049764 2:0.005727 3:0.085749 4:0.062576 5:0.113021 
1 1:-0.235592 2:0.003407 3:0.042118 4:0.056206 5:0.580281 
1 1:0.190352 2:0.003962 3:0.080597 4:0.164482 5:0.268019 
1 1:0.224624 2:0.005052 3:0.112427 4:0.101069 5:0.191756 
1 1:0.302358 2:0.037858 3:0.08953 4:0.144545 5:0.397435 
1 1:-0.022283 2:0.017686 3:0.057 4:0.091368 5:0.430205 
1 1:-0.046817 2:0.011618 3:0.054485 4:0.078207 5:0.449638 
1 1:0.26998 2:0.010788 3:0.055602 4:0.181655 5:0.561501 
1 1:0.262214 2:0.020008 3:0.081949 4:0.1791 5:0.285299 
1 1:0.073744 2:0.003394 3:0.078025 4:0.048544 5:0.32083 
1 1:-0.039496 2:0.057623 3:0.03614 4:0.131005 5:0.237449 
1 1:0.309353 2:0.153163 3:0.077741 4:0.180675 5:0.291856 
1 1:0.013403 2:0.002489 3:0.092667 4:0.134543 5:0.244846 
1 1:-0.090619 2:0.001971 3:0.078981 4:0.005995 5:0.122706 
1 1:-0.029135 2:0.002209 3:0.064081 4:0.046793 5:0.381399 
1 1:0.090116 2:0.01904 3:0.071761 4:0.046184 5:0.30102 
1 1:0.220959 2:0.02033 3:0.072734 4:0.123678 5:0.321443 
1 1:-0.069615 2:0.004864 3:0.105197 4:0.562062 5:0.2546 
1 1:-0.156944 2:0.002715 3:0.053428 4:1 5:0.811978 
1 1:0.01841 2:0.0052 3:0.096648 4:0.560181 5:0.314054 
1 1:-0.041455 2:0.00161 3:0.088825 4:0.425057 5:0.462948 
1 1:0.160576 2:0.004839 3:0.135761 4:0.40404 5:0.452194 
1 1:0.030381 2:0.00265 3:0.114319 4:0.498516 5:0.210823 
1 1:-0.018114 2:0.000714 3:0.080106 4:0.791463 5:0.283915 
1 1:0.157068 2:0.040174 3:0.080088 4:0.168722 5:0.116306 
1 1:0.113997 2:0.006988 3:0.07973 4:0.08474 5:0.306538 
1 1:-0.085624 2:0.001125 3:0.078009 4:0.161672 5:0.614765 
1 1:0.205456 2:0.009701 3:0.095492 4:0.396213 5:0.226211 
1 1:0.330653 2:0.011868 3:0.076098 4:0.485358 5:0.467589 
1 1:0.30365 2:0.008339 3:0.108185 4:0.31642 5:0.280562 
1 1:-0.043801 2:0.006365 3:0.070027 4:0.212261 5:0.350176 
1 1:0.147772 2:0.003545 3:0.113804 4:0.253303 5:0.274335 
1 1:0.155021 2:0.016008 3:0.043486 4:0.248587 5:0.575652 
1 1:0.082325 2:0.002928 3:0.071213 4:0.240348 5:0.1308 
1 1:0.339533 2:0.061341 3:0.044141 4:1 5:1 
1 1:0.072761 2:0.007371 3:0.06474 4:0.13219 5:0.377513 
1 1:0.029129 2:0.004327 3:0.077077 4:0.12272 5:0.280258 
1 1:0.11277 2:0.283285 3:0.015137 4:0.934351 5:0.72007 
1 1:0.271777 2:0.010217 3:0.098045 4:0.41286 5:0.273169 
1 1:0.114449 2:0.007686 3:0.076545 4:0.267598 5:0.153565 
1 1:0.077658 2:0.004737 3:0.070097 4:0.236556 5:0.138259 
1 1:-0.023139 2:0.004683 3:0.075198 4:0.097283 5:0.325012 
1 1:0.2797 2:0.14549 3:0.087087 4:0.470412 5:0.248045 
1 1:0.113086 2:0.005316 3:0.083929 4:0.424192 5:0.160451 
1 1:0.109357 2:0.011116 3:0.125661 4:0.318247 5:0.28316 
1 1:0.233211 2:0.008227 3:0.138534 4:0.267553 5:0.219099 
1 1:0.091525 2:0.007436 3:0.081471 4:0.197543 5:0.300986 
1 1:-0.144418 2:0.009759 3:0.046738 4:0.28174 5:0.524171 
1 1:0.101825 2:0.023057 3:0.055412 4:0.563282 5:0.563421 
1 1:0.428034 2:0.053403 3:0.045813 4:0.990024 5:0.510334 
1 1:0.183486 2:0.005693 3:0.11456 4:0.327802 5:0.53588 
1 1:0.240049 2:0.035706 3:0.03614 4:0.364354 5:0.244542 
1 1:0.198153 2:0.008995 3:0.062027 4:0.699782 5:0.365795 
1 1:0.348548 2:0.019293 3:0.082778 4:0.465442 5:0.274096 
1 1:0.182932 2:0.076076 3:0.027311 4:1 5:0.323597 
1 1:-0.048748 2:0.003513 3:0.067004 4:0.021836 5:0.14464 
1 1:-0.037979 2:0.003451 3:0.098761 4:0.093826 5:0.24747 
1 1:-0.105697 2:0.001671 3:0.08718 4:0.117477 5:0.247779 
1 1:-0.140814 2:0.00494 3:0.081141 4:0.381465 5:0.114796 
1 1:-0.068785 2:0.001178 3:0.047957 4:0.602395 5:1 
1 1:0.068318 2:0.002655 3:0.115689 4:0.668874 5:0.374991 
1 1:-0.050845 2:0.003889 3:0.097307 4:0.805831 5:0.311927 
1 1:0.011842 2:0.001991 3:0.116505 4:0.522498 5:0.373257 
1 1:-0.114047 2:0.002457 3:0.084659 4:0.463111 5:0.110026 
1 1:0.031077 2:0.001153 3:0.101112 4:1 5:0.43656 
1 1:0.210779 2:0.011654 3:0.104832 4:0.245828 5:0.255484 
1 1:-0.038463 2:0.006569 3:0.097545 4:0.047745 5:0.250552 
1 1:-0.04651 2:0.002158 3:0.078724 4:0.110433 5:0.609181 
1 1:0.415316 2:0.046571 3:0.054575 4:0.477898 5:0.395814 
1 1:0.150827 2:0.006429 3:0.080276 4:0.290085 5:0.540417 
1 1:0.30347 2:0.015895 3:0.037734 4:0.625363 5:0.804393 
1 1:-0.10963 2:0.021239 3:0.071074 4:0.144162 5:0.345016 
1 1:0.129373 2:0.030188 3:0.085866 4:0.231422 5:0.363594 
1 1:-0.048826 2:0.003121 3:0.07771 4:0.095893 5:0.322134 
1 1:-0.019751 2:0.002424 3:0.071213 4:0.25724 5:0.610645 
1 1:-0.040087 2:0.002635 3:0.084659 4:0.099023 5:0.566472 
1 1:0.121888 2:0.004536 3:0.102066 4:0.270743 5:0.222299 
1 1:0.318931 2:0.012232 3:0.085395 4:0.28724 5:0.265697 
1 1:0.337767 2:0.026297 3:0.09312 4:0.326761 5:0.474025 
1 1:-0.050665 2:0.020207 3:0.053452 4:0.121985 5:0.40413 
1 1:0.090704 2:0.017514 3:0.075087 4:0.20496 5:0.547649 
1 1:0.14091 2:0.002778 3:0.133948 4:0.166922 5:0.458315 
1 1:0.075642 2:0.010528 3:0.034869 4:0.216519 5:0.652258 
1 1:0.259943 2:0.014813 3:0.040528 4:0.63766 5:0.561171 
1 1:0.724437 2:0.13616 3:0.04819 4:0.172836 5:0.226183 
1 1:0.253732 2:0.005056 3:0.102493 4:0.084065 5:0.090881 
1 1:0.613269 2:0.126042 3:0.03715 4:0.641668 5:0.720945 
1 1:0.163653 2:0.004318 3:0.092396 4:0.046626 5:0.264515 
1 1:0.473298 2:0.023316 3:0.049548 4:0.486908 5:0.435974 
1 1:0.385608 2:0.019079 3:0.100767 4:0.213764 5:0.430522 
1 1:0.256412 2:0.008566 3:0.12876 4:0.162829 5:0.104586 
1 1:0.384994 2:0.011892 3:0.149822 4:0.157191 5:0.237497 
1 1:0.452127 2:0.0241 3:0.087431 4:0.249655 5:0.347164 
1 1:0.255752 2:0.015869 3:0.078133 4:0.121302 5:0.313844 
1 1:0.301824 2:0.011215 3:0.108738 4:0.071314 5:0.225299 
1 1:0.616931 2:0.027927 3:0.070243 4:0.380252 5:0.332846 
1 1:0.211731 2:0.005571 3:0.111337 4:0.06191 5:0.224839 
1 1:0.044491 2:0.002417 3:0.115474 4:0.13182 5:0.356111 
1 1:0.258315 2:0.007444 3:0.07707 4:0.286941 5:0.796547 
1 1:0.286064 2:0.014115 3:0.077741 4:0.099748 5:0.113683 
1 1:0.528333 2:0.097882 3:0.062027 4:0.138909 5:0.138351 
1 1:0.299891 2:0.005671 3:0.102066 4:0.106928 5:0.091262 
1 1:0.713894 2:0.325786 3:0.022689 4:1 5:1 
1 1:0.404243 2:0.048738 3:0.072851 4:0.220772 5:0.121314 
1 1:0.13224 2:0.003482 3:0.064947 4:0.092864 5:0.3326 
1 1:0.266462 2:0.035276 3:0.084365 4:0.194046 5:0.27713 
1 1:0.431877 2:0.098382 3:0.068155 4:0.108474 5:0.159924 
1 1:0.200015 2:0.007334 3:0.084369 4:0.090649 5:0.110404 
1 1:0.583631 2:0.054827 3:0.026783 4:0.790034 5:1 
1 1:0.177202 2:0.012706 3:0.098221 4:0.038933 5:0.24883 
1 1:0.60358 2:0.131107 3:0.039112 4:0.547516 5:0.552298 
1 1:0.37151 2:0.014898 3:0.078393 4:0.243899 5:0.553394 
1 1:0.283264 2:0.027239 3:0.066064 4:0.293277 5:0.459448 
1 1:0.350046 2:0.043532 3:0.078351 4:0.107374 5:0.312973 
1 1:0.755462 2:0.086362 3:0.038304 4:0.425953 5:0.815069 
1 1:0.429603 2:0.040257 3:0.092548 4:0.256179 5:0.252626 
1 1:0.169542 2:0.003109 3:0.109945 4:0.05565 5:0.227685 
1 1:0.065538 2:0.002872 3:0.108114 4:0.124974 5:0.380353 
1 1:0.459772 2:0.068562 3:0.083083 4:0.236267 5:0.738898 
1 1:0.288962 2:0.204386 3:0.092667 4:0.074279 5:0.095372 
1 1:0.232707 2:0.020308 3:0.082778 4:0.092392 5:0.103669 
1 1:0.228274 2:0.007645 3:0.085395 4:0.113444 5:0.109078 
1 1:0.25877 2:0.290169 3:0.089321 4:0.159831 5:0.098944 
1 1:0.180859 2:0.00536 3:0.118569 4:0.040852 5:0.206127 
1 1:0.218667 2:0.007104 3:0.059259 4:0.090342 5:0.364524 
1 1:0.060176 2:0.00903 3:0.107045 4:0.135748 5:0.218412 
1 1:0.316593 2:0.117528 3:0.029145 4:0.3257 5:0.373984 
1 1:0.159801 2:0.009679 3:0.109952 4:0.24709 5:0.243588 
1 1:0.074798 2:0.002697 3:0.080836 4:0.17007 5:0.145415 
1 1:-0.1036 2:0.001388 3:0.080432 4:0.138367 5:0.120493 
1 1:-0.070607 2:0.007911 3:0.049965 4:0.098267 5:0.48915 
1 1:0.169542 2:0.004872 3:0.081089 4:0.339075 5:0.26639 
1 1:0.080954 2:0.002517 3:0.104956 4:0.227664 5:0.128306 
1 1:0.173101 2:0.002377 3:0.111521 4:0.211329 5:0.193316 
1 1:0.006565 2:0.001295 3:0.098367 4:0.272863 5:0.36173 
1 1:0.235003 2:0.005416 3:0.134456 4:0.185018 5:0.225745 
1 1:0.131746 2:0.01344 3:0.062205 4:0.173649 5:0.394209 
1 1:0.13725 2:0.018247 3:0.050045 4:0.176597 5:0.489529 
1 1:0.401867 2:0.031921 3:0.053676 4:0.390287 5:0.581651 
1 1:0.502507 2:0.013651 3:0.073115 4:0.416351 5:0.319771 
1 1:0.264515 2:0.027266 3:0.085407 4:0.091981 5:0.293101 
1 1:0.193334 2:0.001974 3:0.13693 4:0.184066 5:0.448332 
1 1:0.398516 2:0.160548 3:0.008838 4:1 5:1 
1 1:0.404824 2:0.022182 3:0.072851 4:0.399887 5:0.311446 
1 1:0.239477 2:0.006881 3:0.089321 4:0.289504 5:0.254017 
1 1:-0.081517 2:0.003623 3:0.074326 4:0.013212 5:0.130392 
1 1:-0.062284 2:0.000922 3:0.072529 4:0.085748 5:0.336973 
1 1:0.007547 2:0.005405 3:0.074532 4:0.092227 5:0.289827 
1 1:0.266461 2:0.016054 3:0.064215 4:0.290551 5:0.364091 
1 1:0.006919 2:0.003216 3:0.074636 4:0.326238 5:0.428672 
1 1:0.043145 2:0.013271 3:0.011755 4:1 5:1 
1 1:0.021228 2:0.025677 3:0.009691 4:0.981861 5:1 
1 1:-0.076026 2:0.003336 3:0.066642 4:0.071395 5:0.202074 
1 1:0.195127 2:0.010239 3:0.054244 4:0.376646 5:0.248258 
1 1:0.015511 2:0.003001 3:0.054529 4:0.369545 5:0.395362 
1 1:-0.238896 2:0.015132 3:0.024499 4:0.308451 5:1 
1 1:-0.054272 2:0.002248 3:0.086783 4:0.103199 5:0.368669 
1 1:0.187617 2:0.009166 3:0.076814 4:0.338846 5:0.30437 
1 1:-0.021943 2:0.003844 3:0.079998 4:0.083964 5:0.179404 
1 1:-0.103257 2:0.00155 3:0.062772 4:0.164969 5:0.343447 
1 1:-0.249186 2:0.011783 3:0.067004 4:0.125308 5:0.128074 
1 1:-0.029982 2:0.005772 3:0.074326 4:0.210868 5:0.118906 
1 1:-0.009526 2:0.027342 3:0.053436 4:0.298541 5:0.437533 
1 1:0.132804 2:0.005482 3:0.063913 4:0.249822 5:0.643392 
1 1:0.106796 2:0.013407 3:0.116232 4:0.199577 5:0.528169 
1 1:0.286095 2:0.012047 3:0.024101 4:1 5:1 
1 1:0.252428 2:0.017916 3:0.042761 4:0.627033 5:0.531874 
1 1:0.222849 2:0.009274 3:0.130124 4:0.570187 5:0.205827 
1 1:-0.053122 2:0.001442 3:0.08059 4:0.643344 5:0.672567 
1 1:0.199505 2:0.005819 3:0.115182 4:0.721761 5:0.202983 
1 1:0.100536 2:0.002521 3:0.104623 4:0.452839 5:0.393044 
1 1:0.092058 2:0.007034 3:0.068831 4:1 5:0.891894 
1 1:0.033864 2:0.002169 3:0.122927 4:0.603567 5:0.19606 
1 1:0.13484 2:0.0051 3:0.136488 4:0.936095 5:0.157953 
1 1:0.220884 2:0.004992 3:0.145511 4:1 5:0.244533 
1 1:0.035142 2:0.003307 3:0.099816 4:0.224862 5:0.093319 
1 1:0.233539 2:0.005592 3:0.053806 4:0.38933 5:0.891291 
1 1:0.617987 2:0.098897 3:0.132278 4:0.475099 5:0.163303 
1 1:0.196094 2:0.008235 3:0.110304 4:0.55618 5:0.322584 
1 1:0.260146 2:0.096484 3:0.130167 4:0.436821 5:0.233182 
1 1:0.137812 2:0.0075 3:0.11332 4:0.217872 5:0.216393 
1 1:0.1601 2:0.004776 3:0.08748 4:0.205256 5:0.286156 
1 1:0.444486 2:0.03738 3:0.044141 4:1 5:0.985158 
1 1:0.176693 2:0.003745 3:0.101112 4:0.199782 5:0.474297 
1 1:0.147786 2:0.00491 3:0.09312 4:0.305304 5:0.100029 
1 1:0.12422 2:0.040252 3:0.107129 4:0.132691 5:0.228139 
1 1:0.154316 2:0.004307 3:0.116672 4:0.134662 5:0.185146 
1 1:-0.109366 2:0.008664 3:0.02444 4:0.266321 5:1 
1 1:0.236256 2:0.037612 3:0.085824 4:0.424707 5:0.251694 
1 1:0.064785 2:0.002835 3:0.035582 4:1 5:1 
1 1:0.080008 2:0.011986 3:0.041197 4:0.347593 5:0.595232 
1 1:0.02791 2:0.004131 3:0.084016 4:0.330552 5:0.371603 
1 1:-0.004212 2:0.011885 3:0.064081 4:0.182835 5:0.137917 
1 1:0.162958 2:0.01155 3:0.06474 4:0.395456 5:0.671702 
1 1:0.010937 2:0.009294 3:0.098761 4:0.131813 5:0.086892 
1 1:0.035943 2:0.015079 3:0.100922 4:0.163388 5:0.092296 
1 1:0.178465 2:0.003128 3:0.115128 4:0.335452 5:0.197077 
1 1:0.206304 2:0.045557 3:0.118569 4:0.28912 5:0.191358 
1 1:-0.168737 2:0.007599 3:0.072529 4:0.335041 5:0.121852 
1 1:0.084721 2:0.001314 3:0.107129 4:0.396955 5:0.41204 
1 1:0.19876 2:0.03438 3:0.065012 4:0.140168 5:0.33227 
